GIS
1
0.0
3
I
O
B
6
1600 0
713 0 1
68 0 1 2
101 0 2
560 1
2 1 2
3044
current=capital
current=galvanized
current=West
current=dozen
current=film
current=monetary
current=action
current=threat
current=catalog
current=law
current=fraction
current=restaurant
current=Digital
current=asset-backed
current=House
current=variety
current=over-the-counter
current=quake
current=neutrons
current=partnership
current=proceeds
current=102
current=recovery
current=100
current=year-earlier
current=computing
current=Hewlett-Packard
current=Rep.
current=15,000
current=Systems
current=education
current=nine
current=package
current=hot-dipped
current=lending
current=attorney
current=writers
current=our
current=goals
current=They
current=president
current=cold
current=complaints
current=franchisee
current=state
current=chance
current=day
current=correction
current=loan
current=chemical
current=moment
current=About
current=Washington
current=regulations
current=dangerous
current=option
current=fast-food
current=Conway
current=dividend
current=automotive
current=July
current=articles
current=goods
current=Peter
current=game
current=McDonald
current=northern
current=June
current=hotel
current=division
current=clients
current=UAL
current=Gorbachev
current=sterling
current=network
current=1.3
current=Figure
current=1.8
current=1.5
current=1.6
current=ability
current=1.25
current=decision
current=energy
current=death
current=senators
current=involvement
current=Vietnamese
current=Francisco
current=award
current=cards
current=commentary
current=speculation
current=taxpayers
current=Telephone
current=core
current=Tan
current=ticket
current=Glazer
current=Committee
current=Batman
current=Mexican
current=region
current=delivery
current=four-year
current=Grand
current=liquidity
current=wage
current=opinion
current=spot
current=factory
current=initial
current=factors
current=price
current=source
current=MGM
current=Chase
current=expansion
current=quiet
current=Warner
current=Tax
current=enhancements
current=stake
current=expenses
current=everything
current=Courter
current=affiliates
current=groups
current=reasons
current=Wall
current=Puerto
current=metric
current=Westwood
current=coup
current=per-share
current=Marshall
current=Merieux
current=rules
current=ones
current=Association
current=lobbyist
current=bursts
current=Radio
current=long-distance
current=tape
current=Service
current=wake
current=Cawthorn
current=Richard
current=projects
current=minutes
current=Series
current=joint
current=processing
current=aluminum
current=deficit
current=MCA
current=commission
current=third-quarter
current=Ortiz
current=Nikkei
current=Day
current=professor
current=organization
current=deals
current=Report
current=studio
current=levels
current=Agency
current=Life
current=Murray
current=gasoline
current=feet
current=Andersson
current=wholesale
current=fees
current=Transportation
current=labor
current=task
current=poll
current=Thi
current=survey
current=Savings
current=housing
current=decade
current=Our
current=drives
current=industry
current=policies
current=Caribbean
current=Sala
current=wrongdoing
current=full-year
current=Rosen
current=Beach
current=3\/8
current=She
current=rooms
current=3\/4
current=element
current=personnel
current=supply
current=parking
current=September
current=skiers
current=Costa
current=voters
current=insurers
current=class
current=psychology
current=7\/8
current=Parker
current=your
current=Drug
current=block
current=goal
current=customer
current=certificates
current=department
current=regular
current=Cortese
current=criticism
current=auto
current=Chan
current=Los
current=industrials
current=Co.
current=Oil
current=fastest-growing
current=trader
current=Boren
current=Democrat
current=IRS
current=section
current=500
current=Continental
current=cents
current=regulatory
current=acquisition
current=regulators
current=side
current=Amoco
current=lines
current=fewer
current=News
current=PLC
current=Arbel
current=Home
current=actions
current=her
current=Rico
current=amounts
current=Stanford
current=Democratic
current=quarters
current=differences
current=value
current=Treasurys
current=decades
current=junk-bond
current=Burnham
current=Smalling
current=season
current=System
current=Ski
current=materials
current=options
current=problems
current=United
current=hour
current=Rica
current=rival
current=Securities
current=His
current=unemployment
current=Microsoft
current=Area
current=services
current=Charles
current=promotion
current=calculations
current=Those
current=government
current=Commission
current=N.Y
current=Mrs.
current=Issues
current=YOU
current=One
current=Labor
current=Brothers
current=profits
current=cattle
current=Group
current=him
current=neutron
current=gains
current=improvement
current=variations
current=industrial
current=21
current=22
current=23
current=24
current=25
current=26
current=27
current=28
current=strength
current=29
current=campaign
current=Smith
current=evidence
current=Stevens
current=Journal
current=Hutchinson
current=Florio
current=tritium
current=Research
current=Samuel
current=13
current=Trust
current=14
current=12
current=applicants
current=17
current=18
current=16
current=Her
current=19
current=manufacturing
current=negotiations
current=security
current=modern
current=programming
current=segment
current=50
current=Stores
current=purchases
current=seats
current=44
current=St.
current=45
current=fourth-quarter
current=subordinated
current=40
current=Canada
current=42
current=43
current=Packwood
current=48
current=Sri
current=Nicaraguan
current=company
current=III
current=35
current=36
current=33
current=buy-out
current=31
current=Eagle
current=30
current=ways
current=39
current=video
current=37
current=dollar
current=38
current=70
current=Hong
current=71
current=72
current=leaders
current=140
current=Limited
current=American
current=consideration
current=internal
current=loss
current=excess
current=Asset
current=doctor
current=65
current=64
current=66
current=69
current=industries
current=dentists
current=term
current=home
current=150
current=Olivetti
current=administration
current=principal
current=59
current=nations
current=54
current=Harry
current=51
current=57
current=56
current=Sandinistas
current=Camden
current=specific
current=one-third
current=90
current=machine
current=maturity
current=Merrill
current=five
current=coal
current=Yesterday
current=88
current=contribution
current=minor
current=84
current=Illinois
current=hearings
current=80
current=credentials
current=money-market
current=session
current=oil
current=properties
current=Chiron
current=Lotus
current=Street
current=77
current=legal
current=lot
current=Bankers
current=Boston
current=eight
current=overhead
current=telephone
current=Lambert
current=nothing
current=Salomon
current=image
current=difference
current=Robert
current=pro-choice
current=concerns
current=spokesman
current=commissioner
current=movie
current=countries
current=effect
current=buyers
current=coups
current=output
current=executives
current=battle
current=anything
current=Board
current=offerings
current=Anderson
current=producers
current=Moody
current=attention
current=Hunt
current=metals
current=conference
current=Market
current=Bush
current=ounces
current=unit
current=pound
current=parts
current=blue
current=Paramount-MCA
current=225
current=palladium
current=whole
current=Paul
current=car
current=Department
current=panel
current=Silver
current=Amex
current=household
current=fourth
current=worst
current=August
current=opposition
current=Prudential
current=idea
current=Nguyen
current=cases
current=Panama
current=party
current=Kean
current=King
current=key
current=committees
current=gross
current=medical
current=holdings
current=consecutive
current=nation
current=disorders
current=payment
current=Calif.
current=giant
current=facts
current=television
current=adviser
current=officials
current=200
current=protection
current=pace
current=experts
current=peak
current=chief
current=couple
current=Communications
current=domestic
current=spring
current=development
current=Candlestick
current=Fleischmann
current=mood
current=Time
current=branches
current=machines
current=2.7
current=2.4
current=2.5
current=Mich.
current=2.2
current=2.1
current=member
current=district
current=partner
current=piece
current=Vickers
current=authorities
current=inflation
current=Popular
current=Holiday
current=dinner
current=weeks
current=stores
current=experiments
current=consultant
current=broad
current=rubber
current=riders
current=international
current=effort
current=pence
current=high-risk
current=slump
current=interview
current=production
current=Stephen
current=community
current=expense
current=passengers
current=phone
current=People
current=GTE
current=franchise
current=Martin
current=role
current=biggest
current=start-up
current=fur
current=yields
current=broker
current=Latin
current=concern
current=volatility
current=Jersey
current=State
current=strategies
current=plants
current=precious
current=Hugo
current=Prudential-Bache
current=7.5
current=junk
current=group
current=analyst
current=Fox
current=October
current=credit
current=losses
current=interests
current=data
current=PaineWebber
current=child
current=date
current=deviation
current=Jones
current=makers
current=pictures
current=system
current=world
current=main
current=water
current=approach
current=premiums
current=banking
current=readers
current=Woolworth
current=users
current=proposal
current=equity
current=distribution
current=democracy
current=room
current=credit-card
current=Industry
current=Jackson
current=fact
current=Stocks
current=word
current=analysts
current=school
current=GOP
current=team
current=employers
current=Pons
current=seven
current=family
current=sufficient
current=Johnson
current=DEC
current=visitors
current=IAFP
current=Evans
current=Average
current=jury
current=consumers
current=thing
current=Poor
current=Angeles
current=country
current=1980s
current=Valley
current=futures
current=gap
current=Peterson
current=guideline
current=drugs
current=1\/8
current=FUNDS
current=rights
current=1\/2
current=observers
current=1\/4
current=Business
current=institutions
current=Investment
current=Reform
current=Holdings
current=Senate
current=priority
current=Trustcorp
current=spokeswoman
current=chips
current=mutual-fund
current=third
current=100,000
current=entry
current=Soviet
current=society
current=commodities
current=bills
current=silver
current=kids
current=South
current=Adobe
current=Schwartz
current=participants
current=month
current=Rorer
current=students
current=younger
current=companies
current=Hutton
current=guys
current=expectations
current=Partnership
current=success
current=Democrats
current=6.5
current=prospective
current=6.4
current=original
current=peace
current=largest
current=China
current=You
current=Green
current=Corp.
current=A.P.
current=pilot
current=bill
current=subsidiary
current=Germans
current=statement
current=universal
current=Airways
current=Europe
current=guidelines
current=summer
current=Germany
current=current
current=stories
current=part
current=yen
current=packaging
current=manager
current=notification
current=members
current=1992
current=front
current=Big
current=Tokyo
current=1990
current=numbers
current=victims
current=respondents
current=Broker
current=months
current=chip
current=Order
current=bulk
current=Donaldson
current=County
current=1983
current=1980
current=stuff
current=commitments
current=their
current=merger
current=Development
current=1989
current=1988
current=1987
current=1986
current=1985
current=B.A.T
current=1984
current=list
current=top
current=weekend
current=Markets
current=style
current=margin
current=payments
current=program
current=beneficiaries
current=consensus
current=edition
current=Chairman
current=Gov.
current=so-called
current=facilities
current=creative
current=agent
current=Social
current=advantages
current=associate
current=Mitchell
current=ton
current=legislation
current=January
current=rates
current=Security
current=constitutional
current=Central
current=tables
current=York-based
current=person
current=crude
current=speech
current=funds
current=Capitol
current=dream
current=mortgage
current=economy
current=Sells
current=Ill.
current=carrier
current=defensive
current=surge
current=names
current=reason
current=fiscal
current=bidding
current=opportunities
current=profit
current=Witter
current=Brierley
current=hands
current=Thomas
current=Webster
current=airline
current=recession
current=owner
current=pact
current=efforts
current=Campeau
current=charities
current=Computer
current=pension
current=Bob
current=magazines
current=maintenance
current=discounts
current=college
current=period
current=tickets
current=contract
current=estate
current=bids
current=research
current=Two
current=damage
current=chairman
current=systems
current=items
current=BanPonce
current=commodity
current=Honduras
current=criteria
current=space
current=bureau
current=colleagues
current=quarterly
current=failure
current=standards
current=drug
current=Its
current=hostile
current=balance
current=trend
current=#
current=Insurance
current=basic
current=Another
current=Roger
current=stance
current=300
current=Shearson
current=millions
current=fusion
current=hundreds
current=Some
current=insurer
current=Garcia
current=consumer
current=basis
current=capital-gains
current=Christmas
current=Class
current=chances
current=A
current=final
current=Banco
current=sources
current=Columbus
current=7
current=Party
current=8
current=9
current=investor
current=major
current=rating
current=freight
current=editorial
current=composite
current=commitment
current=agreement
current=States
current=Harvard
current=troubles
current=investments
current=U
current=Connecticut
current=suggestions
current=debate
current=S
current=February
current=station
current=political
current=wells
current=Nynex
current=premium
current=imported
current=Southern
current=laws
current=central
current=signs
current=rejection
current=tons
current=sellers
current=NWA
current=reporters
current=ad
current=imports
current=workers
current=scam
current=life
current=unusually
current=impact
current=century
current=magazine
current=retailers
current=quarter
current=de
current=employment
current=City
current=formal
current=sense
current=taxes
current=carriers
current=Batchelder
current=Noxell
current=trouble
current=Raymond
current=Hollywood
current=democratic
current=privatization
current=congressional
current=private
current=women
current=few
current=toll
current=Gargan
current=Health
current=metal
current=N.J.
current=flexibility
current=urban
current=children
current=speculators
current=transaction
current=General
current=latest
current=Task
current=dividends
current=River
current=powerful
current=warning
current=outlook
current=Aug.
current=risks
current=Chicago
current=lawmakers
current=Consolidated
current=Katz
current=Jack
current=Corp
current=Honecker
current=personal
current=financier
current=Corporate
current=Ohio
current=announcement
current=Your
current=years
current=them
current=businesses
current=SEC
current=German
current=Hurricane
current=stadium
current=attempt
current=reforms
current=Ashland
current=MGM\/UA
current=stress-related
current=profitability
current=Citibank
current=Maalox
current=Ms.
current=property
current=tuition
current=franchisers
current=Daily
current=slide
current=entire
current=addition
current=cancer
current=board
current=Oriani
current=actual
current=tasks
current=Magazine
current=parents
current=portion
current=Jerry
current=Nelson
current=Westridge
current=Cordis
current=reporter
current=Carrion
current=activities
current=thousands
current=Connaught
current=Bay
current=enterprises
current=growth
current=condition
current=year-ago
current=loans
current=Standard
current=planners
current=agency
current=permission
current=events
current=3.5
current=widow
current=advantage
current=Krenz
current=International
current=Fund
current=settlement
current=1,000
current=Textron
current=us
current=things
current=night
current=America
current=Watson
current=afternoon
current=holiday
current=Nicaragua
current=deductions
current=cuts
current=federal
current=1990s
current=Purnick
current=words
current=Fed
current=contrast
current=Pacific
current=table
current=Caterpillar
current=Ngoc
current=Federal
current=due-process
current=preferred
current=Asian
current=Hanover
current=truck
current=eye
current=receivables
current=Sales
current=Court
current=Partners
current=parent
current=Warshaw
current=East
current=Paramount
current=freedom
current=heavy
current=letter
current=age
current=5,000
current=Energy
current=London
current=storm
current=treatment
current=sentence
current=stock-index
current=farmers
current=story
current=abuse
current=strategy
current=David
current=ads
current=flag
current=tendency
current=newspaper
current=Davis
current=Medical
current=furs
current=exchanges
current=experience
current=store
current=volume
current=union
current=information
current=S&P
current=Birnbaum
current=families
current=April
current=approval
current=Ciba-Geigy
current=depression
current=language
current=Justice
current=Air
current=anxiety
current=food
current=Michael
current=Lufkin
current=Basir
current=Steel
current=bonuses
current=agencies
current=institutional
current=Herbert
current=GNP
current=headquarters
current=problem
current=earthquake
current=opening
current=currency
current=track
current=Telegraph
current=future
current=aggressive
current=conditions
current=operator
current=defense
current=category
current=disclosure
current=pretax
current=crash
current=shareholder
current=Nghe
current=indexing
current=Bell
current=Manhattan
current=executive
current=Management
current=transactions
current=Rock
current=Bill
current=Section
current=5\/8
current=discounting
current=Park
current=jobs
current=obvious
current=Maine
current=computer
current=restructuring
current=Dealers
current=takeovers
current=city
current=George
current=dependents
current=Jr.
current=Industrial
current=detectors
current=Dodd
current=worker
current=opportunity
current=programs
current=Van
current=Banc
current=May
current=real-estate
current=leader
current=BNL
current=municipal
current=light
current=transportation
current=leadership
current=Star
current=Information
current=Express
current=Island
current=Cela
current=terms
current=Texas
current=catastrophic
current=massive
current=solicitation
current=Loan
current=shippers
current=firms
current=rest
current=Edward
current=bottom
current=franchisees
current=heart
current=Last
current=mink
current=Gen.
current=series
current=What
current=promotions
current=Ltd.
current=mine
current=job
current=Beta
current=deregulation
current=Price
current=electronic
current=me
current=mill
current=credibility
current=entertainment
current=Reserve
current=days
current=450
current=Espectador
current=platinum
current=outlets
current=congressman
current=electric
current=Frederick
current=experiment
current=Bridge
current=H.
current=Chandler
current=center
current=history
current=high-yield
current=floor
current=cafeteria
current=existing
current=Marlowe
current=buy-back
current=budget
current=scientists
current=California
current=number
current=Technology
current=reputable
current=mergers
current=Florida
current=El
current=documents
current=furriers
current=individual
current=plastic
current=Abramson
current=indictment
current=Reynolds
current=base
current=Industries
current=instance
current=F.
current=Frank
current=sheet
pos=#
current=Northwest
current=Atlantic
current=reserve
current=confidence
current=Stone
current=E.
current=men
current=communications
current=Britain
current=Citicorp
current=Calif
current=material
current=paper
current=career
current=message
current=total
current=Co
current=hospital
current=institution
current=special
current=editor
current=business
current=Tharp
current=D.
current=capacity
current=managers
current=Gillette
current=Guber
current=pages
current=Products
current=Colgate
current=Portfolio
current=slowdown
current=type
current=C.
current=Newport
current=specialists
current=Daly
current=morning
current=construction
current=particular
current=corporate
current=weakness
current=areas
current=debts
current=An
current=Wendy
current=AG
current=Peters
current=retirement
current=investigation
current=step
current=Pictures
current=Sculley
current=various
current=B.
current=Drexel
current=bank
current=William
current=Other
current=A.
current=anybody
current=projections
current=passive
current=artists
current=reduction
current=contracts
current=mutual
current=coverage
current=Quantum
current=THE
current=studies
current=software
current=Telesis
current=Mark
current=course
current=positions
current=everyone
current=checks
current=power
current=apparent
current=field
current=December
current=tender
current=Ross
current=arena
current=Machines
current=storage
current=Proceeds
current=shipments
current=slopes
current=Berlin
current=performance
current=owners
current=body
current=Minpeco
current=directors
current=U.S.
current=winter
current=bright
current=Mass.
current=activity
current=highest
current=OTC
current=professionals
current=Field
current=labor-management
current=someone
current=Associates
current=movement
current=European
current=units
current=Republican
current=Panamanian
current=Dr.
current=Entertainment
current=one-time
current=asset
current=exclusive
current=amendment
current=Many
current=Arias
current=previous
current=reserves
current=San
current=sector
current=Dow
current=litigation
current=staff
current=400
current=restrictions
current=productivity
current=employee
current=Data
current=lives
current=standard
current=abortion
current=copper
current=shelters
current=Revenue
current=benefits
current=consultants
current=war
current=sudden
current=curve
current=0.9
current=Their
current=version
current=10-year
current=0.5
current=Exchange
current=0.2
current=0.3
current=products
current=compensation
current=reaction
current=4.5
current=Webster\/Eagle
current=Analysts
current=forces
current=4.7
current=Meridian
current=4.6
current=ruling
current=portfolio
current=Malaysia
current=95
current=director
current=Mexico
current=organizations
current=beta
current=Fla.
current=ratings
current=academic
current=Food
current=provisions
current=whatever
current=stock-market
current=street
current=Union
current=Judge
current=consumption
current=book
current=instructions
current=films
current=Schulman
current=plant
current=Rates
current=bond
current=Ty
current=situation
current=stations
current=Capital
current=W.
current=concrete
current=author
current=baseball
current=surprise
current=books
current=boiler-room
current=Inc.
current=North
current=equipment
current=huge
current=fertilizer
current=Miami
current=letters
current=maker
current=others
current=Foreign
current=edge
current=shareholders
current=house
current=sale
current=economists
current=hours
current=nonperforming
current=pool
current=TV
current=changes
current=after-tax
current=ounce
current=example
current=salesman
current=R.
current=These
current=Virginia
current=Swiss
current=S.
current=policy
current=Net
current=Financial
current=Springs
current=Harold
current=John
current=Atlanta
current=boiler
current=radio
current=Investors
current=same
current=Hochiminh
current=management
current=T.
current=recessions
current=affiliate
current=World
current=venture
current=types
current=wife
current=annual
current=insurance
current=Inc
current=Services
current=P&G
current=gold
current=choice
current=Manuel
current=shortages
current=Shippers
current=retail
current=candidates
current=enforcers
current=Council
current=pilots
current=string
current=second
current=Japanese
current=proposals
current=operators
current=office
current=week
current=rod
current=Steven
current=Manufacturers
current=presence
current=Wyss
current=Lehman
current=associates
current=salesmen
current=recent
current=Noranda
current=Rican
current=Switzerland
current=bankruptcy
current=majority
current=takeover
current=hepatitis
current=victory
current=area
current=My
current=Volume
current=Westmoreland
current=rice
current=fares
current=Poodle
current=event
current=Falconbridge
current=quality
current=Ariz.
current=Dean
current=Nasdaq
current=Dec.
current=arrangement
current=handful
current=economist
current=Hill
current=Supreme
current=acquisitions
current=M$
current=product
current=dollars
current=fears
current=L.
current=agents
current=conflict
current=affidavit
current=assets
current=La
current=FDA
current=portfolios
current=Bumiputra
current=additional
current=requirements
current=officer
current=feedlots
current=M.
current=response
current=producer
current=Noriega
current=Such
current=technical
current=steep
current=Lynch
current=steel
current=assistant
current=expert
current=Profit
current=membership
current=Goldsmith
current=He
current=savings
current=statements
current=Philip
current=charity
current=Sandinista
current=Reagan
current=Kong
current=margins
current=discount
current=It
current=audience
current=criminal
current=mother
current=potential
current=ownership
current=ease
current=crucial
current=talk
current=hard
current=leading
current=gain
current=single
current=offering
current=question
current=recommended
current=Society
current=easy
current=resorts
current=only
current=point
current=mining
current=direct
current=temporary
current=suit
current=volatile
current=shift
current=present
current=supplies
pos=VBG
pos=VBN
current=sound
current=general
current=service
current=size
current=stress
current=hand
current=wish
current=despite
current=average
current=unusual
current=such
current=established
current=credits
current=tax
current=substantially
current=confident
current=meeting
current=name
current=half
current=This
current=focus
current=enhanced
current=customers
current=cautious
current=hopes
current=claim
current=active
current=Index
current=change
current=skiing
current=living
current=larger
current=slow
current=stand
current=travel
current=cost
current=largely
current=free
current=even
current=fear
current=percentage
current=license
current=young
current=extra
current=quick
current=used
current=sell
current=National
current=James
current=uses
current=burst
current=continuing
current=own
current=limit
current=need
current=-RCB-
current=once
current=start
current=seasonally
current=playing
current=well
current=issues
current=issued
current=''
current=plunge
current=Chancellor
current=Avenue
current=The
current=near
current=look
current=testing
current=lower
current=little
current=admits
current=eligible
current=relatively
current=natural
current=publishing
current=monthly
current=sum
current=traded
current=tight
current=odd
current=hope
current=Next
current=trades
current=valuable
current=targets
current=borrowed
current=scheduled
current=calls
current=ends
current=following
current=rumored
current=rule
current=project
current=voting
current=--
current=amount
current=weekly
current=cut
current=attempts
current=backing
current=mean
current=further
current=houses
current=marketing
current=long
current=cutting
current=notes
current=controls
current=charge
current=much
current=result
current=sign
current=hit
current=offers
current=process
current=cause
current=release
current=ski
current=turnover
current=tax-free
current=leveraged
current=great
current=newly
current=old
current=local
current=turn
current=known
current=collapsed
pos=''
current=fight
current=strategic
current=news
current=modest
current=firm
current=runs
current=chosen
current=trading
current=off
current=test
current=promising
current=military
current=pressing
current=Americans
current=down
current=results
current=riskier
current=values
current=subject
current=substantial
current=hold
current=decline
current=greater
current=estimated
current=slightly
current=increasingly
current=stronger
current=operations
current=low
current=That
current=estimates
current=renewed
current=buying
current=called
current=record
current=time
current=doubt
current=somewhat
current=difficult
current=under
current=proposed
current=commissioned
current=announced
current=popular
current=Still
current=valued
current=eager
current=older
current=neither
current=cheap
current=order
current=dramatic
current=School
current=drive
current=Only
current=publicly
current=pressure
current=states
current=around
current=raising
current=features
current=worth
current=overall
current=moves
current=door
current=revised
current=yield
current=provision
current=made
current=successful
current=position
current=fall
current=easing
current=but
current=views
current=Treasury
current=reading
current=senior
current=buy
current=making
current=collapse
current=jump
current=heavily
current=Japan
current=climb
current=declining
current=spread
current=left
current=consulting
current=spent
current=public
current=true
current=worry
current=slight
current=works
current=move
current=hardly
current=advice
current=throughout
current=saying
current=advanced
current=signal
current=show
current=face
current=work
current=either
current=continued
current=places
current=overnight
current=shot
current=health
current=access
current=shop
current=lead
current=declines
current=Lawson
current=study
current=simply
current=boost
current=created
current=simple
current=yet
current=marks
current=More
current=recently
current=increase
current=canceled
current=vote
current=return
current=starting
current=rally
current=year
current=elected
current=6.9
current=Most
current=past
current=often
current=park
current=perceived
current=elsewhere
current=producing
current=lucky
current=mark
current=least
current=...
current=secret
current=charges
current=demand
current=timing
current=too
current=needed
current=advisers
current=quite
current=technology
current=bet
current=foreign
current=finance
current=finding
current=fairly
current=indicated
current=right
current=revenue
current=kind
current=deal
current=live
current=longer
current=Stick
current=flow
current=owned
current=debt
current=strong
current=equal
current=tough
current=clear
current=bit
current=open
current=reports
current=ratio
current=bid
current=big
current=Baker
current=operating
current=inside
current=comfortable
current=commercial
current=less
current=court
current=answer
current=note
current=bullish
current=media
current=required
current=increases
current=caution
current=forecasts
current=trust
current=troubled
current=measure
current=insured
current=!
current=deciding
current=improved
current=widely
current=bear
current=waste
current=?
current=4
current=listed
current=6
current=certain
current=registered
current=:
current=,
current=building
current=.
current=1
current=3
current=2
current=%
current=offered
current=comment
current=&
pos=TO
current=cover
current=`
current=go
current=woman
current=economic
current=sharp
current=added
current=net
current=new
current=pretty
current=upward
current=share
current=based
current=complete
current=wider
current=at
current=expected
current=lift
current=serious
current=virtually
current=force
current=combined
current=its
current=graphics
current=promise
current=trade
current=structure
current=risky
current=filing
current=perhaps
current=closely
current=thin
current=possible
current=like
current=exports
current=tried
current=then
current=drop
current=roughly
current=bad
current=former
current=``
current=-LCB-
current=far
current=related
current=mostly
current=overseas
current=generally
current=line
current=purchase
current=damaged
current=short-term
current=wrong
current=real
current=reported
current=reduced
current=dubbed
current=sharply
current=available
current=increased
current=other
current=shows
current=regional
current=use
current=air
current=familiar
current=form
current=call
current=scams
current=very
current=sweetened
current=given
current=factor
current=adjusted
current=significant
current=advance
current=first
current=Act
current=guaranteed
current=world-wide
current=rebound
current=flat
current=guarantees
current=care
current=blame
current=important
current=plus
pos=PDT
current=short
current=thinking
current=quoted
current=Cancer
current=healthy
current=when
pos=``
current=so
current=novel
current=repeated
current=to
current=lack
current=suits
current=act
current=selected
current=audit
current=than
current=up
current=selling
current=Bank
current=through
current=reporting
current=fund
current=completed
current=comparable
current=of
current=exercise
current=fast
current=beginning
current=working
current=no
current=or
current=support
current=competing
current=case
current=cash
current=level
current=issue
current=planning
current=Stock
current=convicted
current=fare
current=All
current=land
current=race
current=increasing
current=if
current=end
current=in
current=auction
current=and
current=full
current=fighting
current=black
current=pitch
current=White
current=mind
current=not
current=waiting
current=now
current=unfair
current=national
current=remaining
current=-LRB-
current=accounts
current=rescue
current=negative
current=promises
current=turns
pos=:
current=vice
current=run
current=better
current=failed
current=claims
pos=.
pos=,
pos=)
current=while
current=profitable
current=stay
pos=(
current=abroad
current=First
current=common
current=else
current=sort
current=particularly
current=over
current=critical
current=play
current=especially
current=high
current=place
current=plan
current=press
current=control
current=Third
current=daily
current=Both
current=measures
current=investment
current=likely
current=courts
current=view
current=changing
current=independent
current=temporarily
current=man
current=spending
current=soft
current=growing
current=close
current=report
current=range
current=competitive
current=protected
current=paying
current=essentially
current=governor
current=risk
current=rise
current=-RRB-
current=raise
current=thought
current=holding
current=different
current=above
current=partly
current=rising
current=shares
current=slowing
current=set
current=index
current=matched
current=estimate
current=rate
current=limited
current=twice
current=talks
current=Not
current=managing
current=head
current=way
current=heat
current=target
current=interest
current=conservative
current=Even
current=saw
pos=JJS
current=reform
current=sponsor
current=wind
current=official
current=chains
current=best
current=outstanding
current=acts
current=hits
pos=CC
current=necessary
current=due
current=post
current=shipping
current=influence
current=plans
current=favor
current=back
current=exchange
current=corner
current=chemists
current=enough
current=U.K.
pos=FW
current=financing
current=higher
current=coming
current=watched
current=smaller
current=points
current=steps
current=competition
current=losing
current=offer
current=account
current=similar
current=advertising
current=poor
current=times
current=possibility
current=published
current=police
current=York
current=There
current=New
current=large
current=extremely
current=between
current=retailing
current=ride
current=help
current=income
current=merely
current=No
current=weather
current=planned
current=planner
current=small
current=rich
current=forward
current=benefit
current=specified
current=effective
current=On
current=held
current=expensive
current=wide
current=saving
current=significantly
current=strike
current=really
current=going
current=highly
current=billion
current=investing
current=decrease
current=previously
current=orders
current=million
current=costs
current=figure
current=both
current=alleged
current=sets
current=Institute
current=closing
current=expanded
current=offices
current=weak
current=J.
current=usual
current=guarantee
current=good
current=here
current=almost
pos=VBP
pos=VBD
current=one
pos=VBZ
current=University
current=nearly
current=President
current=each
current='s
initCapitalized=True
current=British
pos=RBR
pos=RBS
current=next
current=10
current=11
current=15
current=markets
current=how
pos=PRP
current=money
current=there
pos=POS
current=today
current=more
current=most
current=just
current=double
current=the
current=last
pos=VB
current=$
current='
current=a
pos=RB
current=earlier
current=as
current=late
current=this
pos=WP
current=that
current=what
current=any
current=bonds
current=all
current=stock
pos=$
pos=NNP
pos=NNS
current=several
pos=WRB
pos=PRP$
current=bigger
pos=WDT
current=about
current=stop
current=early
pos=JJR
pos=DT
current=market
pos=CD
initCapitalized=False
pos=EX
pos=NN
current=figures
pos=JJ
pos=IN
current=securities
current=three
current=movies
current=Saturday
current=Western
current=Monday
current=Veronis
current=anyone
current=computers
current=Seidman
current=long-term
current=Sir
current=another
current=dealers
current=Canadian
current=his
current=20
current=Nov.
current=AT&T
current=60
current=brokerage
current=55
current=six
current=she
current=75
current=Vietnam
current=banks
current=these
current=employees
current=people
current=whose
current=minimum
current=Airlines
current=investors
current=Sen.
current=two
current=Sept.
current=Columbia
current=many
current=questions
current=traders
current=Wednesday
current=Trelleborg
current=prices
current=Friday
current=you
current=USX
pos=NNPS
current=something
current=itself
current=maximum
current=he
current=5
current=I
current=Picop
current=committee
current=fraud
current=an
current=himself
current=Mr.
current=they
current=tomorrow
current=financial
current=Sony
current=we
current=individuals
current=Chemical
current=my
current=sales
current=Tuesday
current=Jon
current=four
current=it
current=admission
current=SciMed
current=who
pos=WP$
current=lawyer
current=stocks
current=earnings
current=which
current=Berkeley
current=those
current=billions
current=whom
current=Messrs.
current=some
current=holders
current=98
current=We
current=themselves
current=permanent
current=Jan.
current=yesterday
current=commissions
current=Congress
current=brokers
current=Oct.
current=Thursday
current=every
current=returns
current=file
current=fill
current=acquire
current=seek
current=seen
current=seem
current=After
current=sitting
current=got
current=seems
current=although
current=exclude
current=delayed
current=Says
current=Then
current=out
current=Nevertheless
current=sometimes
current=however
current=citing
current=earn
current=remains
current=normally
current=together
current=were
current=Maybe
current=come
current=with
current=led
current=from
current=Among
current=let
current=n't
current=climbed
current=ever
current=create
current=permit
current=succeed
current=acquired
current=raised
current=played
current=disclose
current=guilty
current=establish
current=won
current=hoped
current=affect
current=find
current=take
current=achieved
current=flying
current=participate
current=sent
current=privatized
current=ahead
current=includes
current=included
current=send
current=shortly
current=Like
current=turned
current=wait
current=hiring
current=becoming
current=keeping
current=before
current=know
current=sure
current=consider
current=posting
current=appear
current=trying
current=where
current=have
current=gets
current=prompted
current=sending
current=allowed
current=kept
current=doing
current=meaning
current=dropped
current=feel
current=moving
current=able
current=filed
current=Although
current=slid
current=want
current=operate
current=went
current=knew
current=has
current=telling
current=fell
current=had
current=felt
current=owns
current='d
current=reached
current='m
current=accept
current=prepared
current=declared
current=reaches
current=acknowledges
current=safe
current=officially
current=unless
current=tougher
current=during
current=lose
current=How
current=agreed
current=annually
current=reduce
current=designed
current=appeared
current=running
current=helping
current=indicating
current=clearly
current=Because
current=said
current=noted
current=compares
current=compared
current=happen
current='re
current=obtain
current=seemed
current=predicting
current=Though
current=asking
current=adding
current=putting
current=reflecting
current=probably
current=knows
current=easily
current=beyond
current=purchased
current='ve
current=attributed
current=lost
current=until
current=goes
current=might
current=gathered
current=reckons
current=rather
current=sit
current=wanted
current=poorly
current=developed
current=grow
current=hampered
current=begun
current=tell
current=rose
current=for
current=though
current=done
current=While
current=alone
current=except
current=surged
current=along
current=put
current=fly
current=Until
current=can
current=recorded
current=could
current=fail
current=restore
current=applied
current=moved
current=Meanwhile
current=provides
current=conducted
current=become
current=provided
current=push
current=threatened
current=ensure
current='ll
current=because
current=filled
current=announce
current=puts
current=caught
current=does
current=comes
current=experienced
current=meet
current=grew
current=started
current=grown
current=ending
current=occur
current=knocking
current=instead
current=stopped
current=From
current=watch
current=For
current=recalls
current=continues
current=reflects
current=preparing
current=pushed
current=passed
current=contribute
current=Once
current=gotten
current=including
current=discuss
current=usually
current=intended
current=make
current=think
current=placed
current=presented
current=noting
current=falls
current=declined
current=received
current=Rather
current=also
current=introduced
current=stuck
current=linked
current=again
current=per
current=keep
current=stepped
current=priced
current=improve
current=get
current=caused
current=leave
current=pass
current=pay
current=spend
current=managed
current=harder
current=Perhaps
current=try
current=stayed
current=translated
current=expressed
current=began
current=plunged
current=impressed
current=carry
current=soared
current=rejected
current=allow
current=immediately
current=actually
current=indeed
current=charged
current=pick
current=should
current=rallied
current=indicates
current=predicted
current=using
current=learn
current=boosting
current=Yet
current=But
current=give
current=carried
current=Within
current=learned
current=covered
current=named
current=contributed
current=struck
current=entirely
current=without
current=against
current=considered
current=acquiring
current=serve
current=paid
current=retire
current=begin
current=within
current=offset
current=indicate
current=vary
current=gave
current=allows
current=transfer
current=Take
current=continue
current=earned
current=already
current=beat
current=predict
current=;
current=-
current=deliver
current=require
current=decided
current=build
current=representing
current=fully
current=built
pos=UH
current=quickly
current=be
current=took
current=lies
current=by
current=across
current=thus
current=approve
current=recommend
current=committed
pos=RP
current=narrowly
current=via
current=settled
current=primarily
current=provide
current=do
current=prevent
current=helped
current=ca
current=During
current=told
current=sells
current=ask
current=operates
current=attract
current=showed
current=into
current=Instead
current=read
current=reach
current=taken
current=takes
current=represents
current=ran
current=expect
current=generate
current=ended
current=would
current=privately
current=bring
current=seeking
current=aggressively
current=looks
current=refuse
current=getting
current=below
current=develop
current=happened
current=away
current=Separately
current=accused
current=approved
current=concluded
current=causing
current=came
current=When
current=wo
current=looking
current=gives
current=Moreover
current=found
current=reacted
current=means
current=showing
current=wants
current=ago
current=thinks
current=suggests
current=followed
current=remain
current=carrying
current=represented
current=attracted
current=oust
current=lowered
current=add
current=interested
current=reflected
current=backed
current=borrow
current=impossible
current=And
current=providing
current=invested
current=worked
current=according
current=always
current=on
current=initially
current=Also
current=stealing
current=posted
current=submit
current=needs
current=admitted
current=is
pos=SYM
current=earmarked
current=avoid
current=Despite
current=converted
current=apparently
current=controlled
current=entered
current=According
current=upon
current=soon
current=win
current=boosted
current=promised
current=why
current=jumped
current=encouraged
current=asked
current=However
current=discussing
current=met
current=By
current=measured
current=existed
current=expand
current=As
current=At
current=outside
current=include
current=may
current=believes
current=reflect
current=must
current=optimistic
current=qualify
current=assume
current=considering
current=pushing
current=conceded
current=appears
current=launched
current=directly
current=pulled
current=see
current=forced
current=sold
current=Now
current=Nor
current=described
current=insists
current=triggered
current=was
current=otherwise
current=brought
current=defined
current=whether
current=Indeed
current=bought
current=hear
current=after
current=say
current=totaled
current=gained
current=pursue
current=involved
current=covers
current=currently
current=receive
current=determined
current=voted
current=believe
current=unveiled
current=becomes
current=covering
current=follows
current=Since
current=Over
current=will
current=disclosed
current=tumbled
current=match
current=suspended
current=typically
current=protect
current=makes
current=maintain
current=toward
current=having
current=behind
current=involving
current=expects
current=So
current=To
current=changed
current=cited
current=still
current=Looking
current=remained
current=closed
current=Why
current=leaving
current=squeezed
current=never
current=released
current=invest
current=Here
current=Of
current=maybe
current=hurt
current=retain
current=Or
current=became
current=Under
current=suggest
current=among
current=taking
current=replace
current=being
current=associated
current=says
current=Before
current=produce
current=giving
current=holds
pos=MD
current=With
current=shipped
current=opened
current=claiming
current=revive
current=unchanged
current=frequently
current=denied
current=suggested
current=maintained
current=did
current=hire
current=watching
current=been
current=save
current=sought
current=handle
current=adds
current=since
current=gone
current=contends
current=produced
current=In
current=figured
current=If
current=later
current=are
0.8738867454312895
2.104087012064807
0.9705640273470406
0.8738867454312941
0.8738867454312867
2.104087012064812
0.8738867454312833
0.8738867454312861
0.8738867454312872
0.8738867454312886
0.8738867454312872
0.8738867454312861
0.6260206290786992
2.1040870120648125
0.6260206290787099
0.8738867454312867
2.1040870120648036
0.8738867454312941
0.7352828591665816
0.8738867454312839
0.7352828591665813
0.6819386047793775
0.8738867454312861
0.6819386047793824
2.1040870120648054
5.047495501842557
0.6260206290787071
0.6260206290786993
0.6819386047793758
1.2764164703590644
0.8738867454312947
0.6819386047793772
0.8738867454312867
2.1040870120648036
0.8738867454312872
0.8738867454312839
0.7352828591665818
0.4844924174647994
0.73528285916658
0.7562985363746364
0.8738867454312956
2.1040870120648107
0.7352828591665893
0.8738867454312872
1.4056606742469284
0.8738867454312839
0.8738867454312895
0.8738867454312872
0.8738867454312941
0.8738867454312839
0.8738867454312947
6.862509768713853
0.6260206290787054
0.7352828591665818
2.104087012064807
0.8738867454312867
0.8738867454312914
0.6260206290787027
0.8738867454312889
2.104087012064807
0.6260206290786987
0.7352828591665818
0.7352828591665848
0.6260206290787054
0.8738867454312862
0.6260206290787036
2.104087012064807
0.6260206290786993
0.8738867454312839
0.8738867454312826
0.7352828591665825
0.6260206290787008
0.6260206290787038
0.8738867454312839
0.8738867454312896
0.6819386047793758
0.6552921132612205
0.6819386047793744
0.6819386047793744
0.6819386047793762
0.8738867454312867
0.6819386047793758
0.8738867454312889
0.8738867454312839
0.8738867454312947
0.7352828591665893
0.8738867454312875
1.4731236813880353
0.6260206290786993
0.8738867454312872
0.7352828591665818
0.8738867454312872
0.8738867454312875
0.7352828591665816
0.6260206290787105
0.8738867454312861
0.6260206290787027
0.8738867454312861
0.6260206290787038
0.6260206290787105
0.6260206290787044
1.5843497210730495
0.8738867454312861
0.8738867454312875
2.104087012064807
0.6260206290787027
0.8738867454312867
0.8738867454312872
0.8738867454312872
0.8738867454312861
0.8738867454312867
2.1040870120648094
0.73528285916658
1.1266199725958634
0.8738867454312875
0.6260206290787036
0.626020629078702
0.8738867454312875
2.104087012064807
0.62602062907871
0.6260206290787044
0.7352828591665818
0.8738867454312911
0.7352828591665772
0.8738867454312872
0.6260206290787047
0.7352828591665818
0.7352828591665825
0.7352828591665816
0.6260206290787058
0.6260206290786993
2.104087012064807
0.6260206290787038
0.8738867454312889
2.104087012064807
0.6260206290787036
0.6260206290787027
0.7352828591665816
0.7352828591665893
0.6260206290787008
0.8738867454312875
0.7352828591665813
0.6260206290787038
2.104087012064807
0.8738867454312872
0.6260206290787047
0.8738867454312861
0.6260206290787027
0.6260206290787113
3.5772455031764365
0.7352828591665825
0.626020629078702
2.104087012064812
0.8738867454312861
0.8738867454312872
0.8738867454312941
0.6260206290787105
0.8738867454312861
2.1040870120648094
0.6260206290787038
0.6260206290787105
0.6260206290787044
0.8738867454312839
0.8738867454312839
0.7352828591665893
0.6260206290787038
0.8738867454312914
0.7352828591665866
0.6260206290787038
0.6260206290787047
0.6260206290787038
0.8738867454312872
0.7352828591665813
0.6260206290786987
2.1040870120648094
0.7352828591665848
0.6334076889825607
0.8738867454312947
0.8738867454312947
0.8738867454312914
0.6260206290787036
0.8738867454312875
0.6260206290787027
0.8738867454312872
0.8738867454312843
0.42653283269594244
0.7352828591665818
0.873886745431297
0.7352828591665848
0.6260206290787038
0.6260206290787038
0.8738867454312861
2.104087012064807
0.6260206290786993
0.6260206290787078
0.6819386047793802
0.7562985363746355
0.7352828591665772
0.6819386047793802
0.8738867454312872
0.7352828591665848
0.8738867454312861
0.8738867454312872
0.6260206290787065
0.7352828591665816
0.6260206290787054
0.7352828591665772
0.7352828591665816
0.8738867454312875
0.8738867454312941
0.6819386047793764
0.6260206290787038
0.4844924174647918
0.6260206290787038
0.8738867454312861
0.8738867454312861
0.8738867454312872
0.7352828591665818
0.8738867454312941
2.104087012064813
0.6260206290787038
0.8738867454312867
0.8738867454312872
0.6260206290787071
0.6260206290787045
0.73528285916658
0.6260206290786995
0.6260206290787038
2.104087012064807
0.8738867454312867
0.6260206290787025
0.6260206290787038
0.6260206290786994
0.8738867454312861
0.6819386047793784
0.6260206290787038
0.735282859166585
2.1040870120648036
0.8738867454312941
0.7352828591665813
0.8738867454312914
0.6260206290787093
0.735282859166579
3.5001712212976632
0.6260206290787025
0.6260206290787046
0.6260206290787038
0.6260206290787036
0.7352828591665816
0.5343198412723692
0.6260206290787036
0.7352828591665893
0.6260206290787025
1.5115054248904185
0.7352828591665813
0.73528285916658
0.8738867454312915
1.6837887067093267
0.7352828591665818
0.8738867454312947
0.6260206290787038
0.6260206290787038
0.8738867454312867
0.6260206290787038
0.6334076889825607
0.7352828591665901
0.7352828591665848
0.7352828591665825
0.626020629078702
0.8738867454312872
0.6260206290787036
1.653271156683117
1.0300923974962464
0.42653283269594255
0.8738867454312839
0.6260206290787038
0.6260206290787038
0.7352828591665772
0.6260206290787036
0.8738867454312872
0.73528285916658
1.2062244734128693
0.8738867454312831
0.6260206290787055
0.6260206290787025
0.6260206290787036
0.5834679282410624
0.7562985363746393
0.5319478509790514
0.6260206290787105
0.8532090182012385
0.7352828591665772
0.7352828591665901
0.6260206290787007
1.091763339679142
0.8738867454312872
0.7352828591665772
0.8738867454312947
0.7352828591665816
2.1040870120648054
0.6819386047793725
0.6819386047793762
0.6819386047793762
0.6819386047793856
0.6819386047793738
0.6819386047793775
0.6819386047793775
0.681938604779384
0.8738867454312861
0.681938604779384
0.8738867454312833
0.6260206290787025
0.8738867454312896
0.6260206290787038
0.6271601556851338
0.6260206290787044
0.6260206290786987
0.8738867454312875
0.6260206290787038
0.6260206290787038
0.681938604779378
0.626020629078707
0.681938604779384
0.6819386047793777
0.73528285916658
0.6819386047793744
0.6819386047793815
0.6819386047793744
0.42653283269594405
0.6819386047793795
0.8738867454312867
0.73528285916658
0.8738867454312886
1.902059357568089
0.8738867454312872
0.8738867454312872
0.681938604779379
0.6148388813316891
0.7352828591665816
0.7352828591665818
0.6819386047793775
0.6260206290787038
0.681938604779384
2.1040870120648067
7.4831869471120775
0.6819386047793802
0.6260206290787038
0.6819386047793758
0.6819386047793775
0.6260206290787038
0.6819386047793762
0.6260206290787025
1.5843497210730495
0.873886745431298
0.6260206290787038
0.6819386047793856
0.6819386047793762
0.6819386047793744
0.8738867454312879
0.681938604779384
0.6260206290787036
0.6819386047793743
0.7352828591665848
0.6819386047793775
0.8738867454312872
0.6819386047793758
0.8738867454312833
0.6819386047793758
0.6819386047793744
0.6260206290787036
0.6819386047793758
0.6819386047793775
0.735282859166583
0.6819386047793775
0.6260206290787044
1.0466386221069568
0.8738867454312872
2.104087012064807
0.8738867454312839
2.0570290276134453
0.6260206290787038
0.8738867454312872
0.6819386047793725
0.6819386047793775
0.6819386047793775
0.6819386047793775
0.7352828591665866
0.7352828591665818
3.419998579708502
0.8738867454312889
0.6819386047793772
0.6260206290787055
0.8738867454312895
1.8253132783775028
0.6819386047793758
0.7352828591665813
0.6819386047793775
0.6260206290787038
0.6819386047793762
0.6819386047793762
0.6819386047793775
1.6837887067093251
0.6260206290787038
2.104087012064807
0.8738867454312872
0.6819386047793775
0.8738867454312839
0.8738867454312867
0.6260206290787044
0.6819386047793825
0.8738867454312941
0.6552921132612191
0.6819386047793775
0.8738867454312875
2.104087012064807
0.6819386047793775
0.6260206290787113
0.73528285916658
0.6819386047793744
0.7352828591665818
2.104087012064807
0.8738867454312872
0.8738867454312944
0.7352828591665816
0.6260206290787038
0.6260206290787038
0.6260206290787098
0.6819386047793758
2.1040870120648036
0.8738867454312931
0.6148388813316891
0.6260206290787105
0.681938604779378
1.7597342859667628
0.8738867454312895
0.6260206290787038
0.8738867454312941
0.6260206290786994
0.8738867454312872
0.8738867454312947
0.6260206290787055
2.1040870120648067
0.7352828591665848
0.873886745431291
0.8738867454312861
0.8738867454312947
0.7352828591665772
0.8738867454312914
0.7352828591665772
0.73528285916658
0.8738867454312941
0.7352828591665848
0.8738867454312872
0.8738867454312941
0.6260206290787077
0.7352828591665813
0.6260206290787025
0.7352828591665796
0.6260206290787036
0.8738867454312861
0.6260206290787093
0.7352828591665772
0.8738867454312875
0.6309505398464466
0.6260206290787015
0.7352828591665816
0.8738867454312864
0.8738867454312896
0.7352828591665772
1.902059357568089
1.5843497210730482
0.6819386047793775
0.8738867454312861
2.001077133462572
0.6260206290786994
0.8738867454312947
0.6260206290787116
0.8738867454312941
0.8403388841400259
0.626020629078707
0.8738867454312875
2.1040870120648045
1.32747551319546
0.6260206290787066
0.8738867454312941
0.6260206290787038
0.8738867454312867
0.6260206290787036
4.029639102910025
0.6260206290787093
0.8738867454312914
0.6260206290787044
0.6260206290787025
2.104087012064813
0.7352828591665818
2.104087012064813
2.1040870120648107
0.7352828591665901
2.104087012064807
0.8738867454312889
0.7352828591665818
0.8738867454312867
0.6260206290787044
0.8738867454312872
0.7352828591665818
0.8738867454312833
0.8738867454312861
0.7352828591665893
0.6819386047793744
0.8738867454312875
0.8738867454312861
0.7352828591665816
0.8738867454312872
1.97135148129879
0.8738867454312854
0.9978173996709081
2.104087012064807
0.8738867454312867
0.8738867454312941
0.6260206290787025
0.6260206290787025
0.8738867454312872
0.6260206290787044
0.7352828591665818
0.7352828591665901
0.6819386047793775
0.6819386047793758
0.681938604779384
0.6260206290787038
0.6819386047793762
0.6819386047793775
0.8738867454312875
0.8738867454312875
0.8738867454312886
0.8738867454312861
0.6260206290787038
0.7352828591665893
0.8738867454312845
0.6260206290786994
0.6260206290787093
0.8738867454312872
0.735282859166583
2.845980325207543
0.7352828591665796
0.8738867454312839
2.1040870120648067
0.8738867454312861
0.7352828591665818
2.1040870120648067
0.8738867454312843
0.8738867454312872
2.104087012064807
0.8738867454312875
0.8738867454312875
0.8738867454312857
0.6260206290787044
0.8738867454312861
0.8738867454312861
0.7352828591665818
0.8738867454312861
0.5688963450580613
0.6260206290787113
0.8738867454312941
0.6260206290787038
0.8738867454312886
1.327475513195459
1.9456153094945323
0.8738867454312947
0.7352828591665772
0.8738867454312833
0.6260206290787044
4.671532598281354
0.8738867454312886
0.6260206290787105
0.630572056311003
0.7352828591665818
0.7352828591665816
2.104087012064807
0.6260206290787036
0.6260206290787038
0.6819386047793762
0.8738867454312854
1.2455486392482358
0.873886745431288
0.6260206290787066
0.6260206290786987
0.8738867454312911
0.7352828591665906
0.7352828591665848
0.7352828591665901
0.6260206290787038
0.8738867454312867
5.649729197341003
0.8738867454312867
0.6260206290787116
0.7352828591665772
0.7352828591665818
0.8738867454312915
0.8738867454312886
2.1040870120648067
0.8738867454312833
0.8738867454312947
0.73528285916658
0.873886745431291
0.73528285916658
0.6260206290787038
0.7352828591665818
0.8738867454312895
0.8738867454312843
0.8738867454312872
0.8738867454312872
0.8738867454312914
0.8738867454312839
0.6436715122650868
0.6260206290787113
0.8738867454312886
0.5688963450580597
0.8738867454312861
0.7352828591665874
0.8738867454312872
0.6260206290787038
0.8738867454312867
0.73528285916658
0.6260206290787025
0.681938604779378
0.873886745431291
2.104087012064807
0.6260206290787093
0.6260206290786994
0.7352828591665818
0.6260206290787044
0.6260206290787025
0.6260206290787105
0.8738867454312875
0.7352828591665772
0.8738867454312914
0.6260206290787025
0.6260206290787066
0.8738867454312854
0.681938604779384
0.6260206290786994
0.7352828591665796
0.8738867454312861
0.6260206290787055
0.8738867454312861
0.7352828591665901
0.6819386047793802
0.5688963450580582
0.7352828591665848
0.6819386047793802
0.73528285916658
0.6819386047793732
0.6278717935591622
0.7352828591665816
0.6260206290787025
0.6260206290787038
0.6260206290787044
0.6260206290787055
0.8738867454312872
0.6260206290787038
0.8738867454312941
0.7352828591665893
2.1040870120648067
2.10408701206481
0.6819386047793775
0.8738867454312861
1.4333073879366653
0.8738867454312861
0.7352828591665813
0.7352828591665825
0.873886745431288
0.7352828591665818
1.0466386221069697
0.6260206290787038
0.6260206290787038
0.73528285916658
0.8738867454312923
0.6260206290786994
0.7352828591665893
3.079115095214428
0.7352828591665939
0.6260206290787113
0.7352828591665818
0.7352828591665772
0.6260206290787025
0.8738867454312914
1.6837887067093311
0.6819386047793762
2.104087012064807
0.6819386047793772
2.104087012064813
0.8738867454312875
1.3274755131954616
0.626020629078702
0.7562985363746437
0.6260206290787105
0.6260206290787098
0.6260206290786994
0.8738867454312872
0.8738867454312889
0.8738867454312826
1.6837887067093251
0.8738867454312886
2.104087012064807
1.4988355516407148
0.6260206290787046
0.7352828591665772
0.8738867454312941
0.6260206290787055
2.045870028232924
0.7352828591665816
0.8738867454312962
0.8738867454312839
0.8738867454312872
0.8738867454312826
0.8738867454312839
0.7352828591665906
0.6819386047793772
0.8738867454312839
0.8972199248696281
0.6260206290787046
0.6819386047793851
3.167718659074308
0.73528285916658
0.7352828591665772
0.6260206290787025
0.7352828591665922
0.8738867454312839
0.6260206290787105
0.8738867454312861
0.6260206290787044
0.6260206290787105
0.6819386047793775
0.6819386047793856
0.8738867454312872
0.7352828591665818
0.4844924174648054
0.8738867454312889
0.6260206290787038
0.6819386047793737
0.6819386047793771
0.6819386047793825
0.6819386047793795
0.6819386047793772
0.630572056311003
0.6819386047793856
0.8738867454312872
1.9150537188493801
0.8738867454312947
1.5336934214246172
0.8738867454312861
0.8738867454312867
0.7352828591665825
0.8738867454312866
0.7352828591665818
0.8738867454312861
0.8738867454312861
0.6260206290786987
0.6260206290787038
2.104087012064813
0.7352828591665818
2.104087012064807
0.8738867454312872
0.6260206290787055
0.7352828591665818
1.9737036158190602
0.6260206290786994
0.8738867454312872
0.8738867454312872
0.6260206290787044
1.1293950506697656
0.6260206290786998
2.104087012064807
0.6260206290787055
0.73528285916658
1.5843497210730495
0.8738867454312941
1.653271156683117
0.8738867454312875
1.2554276468903338
0.6260206290787038
0.8738867454312872
0.8738867454312872
0.8738867454312846
0.6260206290787038
0.6260206290787038
0.8738867454312914
2.104087012064807
0.8738867454312861
0.73528285916658
0.8738867454312914
2.104087012064803
2.67760168479918
0.7352828591665816
0.8738867454312905
0.6260206290787025
0.6260206290787038
0.7352828591665866
0.6260206290787105
0.6260206290786987
0.8738867454312833
0.8738867454312872
0.8738867454312867
0.8738867454312861
0.7352828591665856
0.6260206290787038
0.7352828591665796
0.6319340216885019
0.8738867454312941
0.6260206290787025
0.73528285916658
0.8738867454312875
0.73528285916658
0.8738867454312886
0.8738867454312881
0.7352828591665818
0.873886745431288
0.8738867454312862
0.7352828591665813
2.3050512710008033
0.5319478509790496
0.8738867454312875
0.8738867454312905
0.7352828591665818
0.73528285916658
0.6260206290787044
0.8738867454312867
0.6260206290787038
0.73528285916658
0.8738867454312867
0.8738867454312833
0.7352828591665818
2.007812981254433
0.873886745431291
0.7352828591665893
0.8738867454312839
0.4265328326959397
2.104087012064807
0.8738867454312861
0.8738867454312872
2.1997071574293816
0.6282985675033453
2.104087012064807
1.206224473412868
0.6260206290787025
0.8738867454312872
0.6819386047793758
0.6260206290787007
0.7352828591665816
0.8738867454312862
0.7352828591665866
1.206224473412868
0.8738867454312861
0.6260206290787038
0.8738867454312922
0.8738867454312914
0.7352828591665772
0.6260206290787077
0.6260206290787038
0.7352828591665818
1.2010133970802996
2.1040870120648067
0.6260206290786994
0.7352828591665818
0.6260206290787038
0.6819386047793815
0.6260206290787038
0.6819386047793851
0.6819386047793732
0.8738867454312915
2.104087012064805
0.8738867454312941
3.6133312519841416
0.8738867454312875
2.064597833485828
0.8738867454312875
0.8738867454312895
1.2764164703590586
0.6260206290787038
0.7352828591665818
0.7352828591665874
0.6260206290786994
0.6260206290787044
0.7352828591665818
0.8738867454312861
0.6260206290787036
0.6260206290787038
0.8738867454312875
2.1040870120648094
0.7352828591665818
0.6260206290787036
0.8738867454312896
5.50091050757206
0.6260206290787044
0.7352828591665816
2.1040870120648067
0.7352828591665816
0.8738867454312861
0.735282859166583
0.7352828591665818
0.6260206290787025
0.7352828591665772
0.8738867454312861
0.7352828591665772
0.7352828591665874
0.8738867454312872
0.8738867454312881
5.681309630784339
0.8738867454312867
0.8738867454312872
0.8738867454312839
0.7352828591665772
0.8738867454313005
1.7906183412902348
0.8738867454312861
0.626020629078707
2.104087012064807
0.8738867454312833
3.167718659074299
0.7352828591665772
0.6260206290787038
0.6260206290787038
0.8738867454312861
0.6260206290787038
0.6260206290787077
2.104087012064807
0.8738867454312839
2.1040870120648067
2.062360783772152
0.73528285916658
2.333695926359184
0.8738867454312861
0.6260206290787025
0.6260206290787044
0.8738867454312872
0.6260206290787038
0.8738867454312872
2.104087012064807
0.7352828591665848
0.7352828591665818
0.8738867454312853
0.6260206290787025
1.327475513195464
0.6260206290787025
0.73528285916658
0.6260206290787038
2.104087012064807
0.8738867454312872
0.8738867454312867
0.6260206290787036
0.7352828591665901
0.6260206290787116
0.7352828591665818
0.6260206290787025
0.6260206290786994
0.6260206290787036
0.6260206290787105
0.6260206290787025
2.104087012064811
0.8738867454312872
1.5843497210730495
0.6260206290787105
0.8738867454312872
0.42653283269594244
0.7352828591665771
1.0917633396791318
0.735282859166579
0.6260206290787036
1.4821045771712111
0.6260206290787025
0.8738867454312872
0.8738867454312839
0.73528285916658
0.6260206290787044
0.6260206290787038
2.1040870120648067
0.8738867454312872
0.6260206290787025
0.6260206290787038
0.6260206290786994
0.8738867454312947
0.8738867454312914
0.73528285916658
0.6260206290787025
0.8738867454312861
2.104087012064812
0.8738867454312889
0.8738867454312872
0.8738867454312931
0.6260206290787038
2.1040870120648067
0.7352828591665818
0.6260206290787038
0.7352828591665848
0.8738867454312875
0.6260206290787038
0.6260206290787038
0.6260206290787044
0.6260206290787038
0.8738867454312861
0.6260206290787038
0.73528285916658
0.7352828591665866
0.6260206290786994
0.6260206290787055
0.7352828591665813
0.8738867454312872
0.8738867454312872
2.1040870120648036
0.735282859166588
0.6260206290787025
0.7352828591665825
0.8738867454312889
0.8738867454312872
0.73528285916658
0.6819386047793762
0.8738867454312872
0.8738867454312947
0.626020629078702
0.6260206290786992
0.6260206290787044
0.8738867454312947
0.6819386047793856
0.6260206290787038
1.0917633396791366
0.735282859166579
0.873886745431291
0.6260206290787099
0.6260206290787038
0.8738867454312839
0.8738867454312872
0.6260206290786987
0.7352828591665818
0.73528285916658
2.104087012064805
0.6819386047793762
0.6260206290787025
0.7352828591665818
0.6260206290787044
0.8738867454312861
0.6260206290787105
0.8738867454312861
0.6260206290787025
0.6260206290787025
0.6260206290787066
0.8738867454312861
2.104087012064807
1.2948916493278146
0.6260206290787105
0.8738867454312861
0.8738867454312861
0.8738867454312872
0.568896345058057
0.626020629078707
0.9978173996709123
0.873886745431291
0.6260206290787038
0.835440001633203
0.6260206290787046
0.8738867454312872
2.1040870120648045
0.8738867454312862
0.8738867454312843
0.6819386047793775
0.6319340216885019
0.8031900496278056
0.8738867454312872
0.8738867454312867
0.8738867454312872
0.8738867454312872
0.7352828591665901
0.8738867454312833
4.782521768962618
0.8738867454312914
0.626020629078707
0.7352828591665818
0.8738867454312875
0.8738867454312872
0.8738867454312839
0.6260206290787093
0.856423887959491
0.7352828591665848
0.7352828591665818
0.8738867454312872
0.8738867454312861
0.8738867454312944
0.8738867454312826
0.8738867454312895
0.626020629078702
0.6260206290787038
0.7352828591665818
0.6260206290787044
0.8738867454312854
0.6260206290787025
0.8738867454312861
0.8738867454312872
0.6260206290787038
0.6260206290787069
0.8738867454312867
0.8738867454312914
0.6260206290787105
0.6260206290787044
0.6260206290787044
0.6260206290787044
0.7352828591665818
0.7352828591665893
2.1040870120648067
0.6260206290787038
0.6260206290787036
0.8738867454312941
0.8738867454312895
0.8738867454312886
0.8738867454312872
0.8738867454312947
0.8738867454312875
0.6260206290787038
0.8738867454312826
2.104087012064807
0.7352828591665901
0.8738867454312875
0.8738867454312914
0.8738867454312941
0.8738867454312861
2.1040870120648067
0.8738867454312886
0.8738867454312941
0.6260206290787038
0.8738867454312896
0.6260206290787044
0.6260206290787055
1.7514242777867988
0.626020629078707
0.73528285916658
0.6260206290787036
0.6260206290787036
0.6552921132612209
0.681938604779378
0.8738867454312839
0.6260206290787036
0.7352828591665816
2.104087012064807
0.6260206290787038
0.8738867454312911
0.8738867454312914
0.5688963450580592
0.73528285916658
0.8738867454312947
0.6260206290787105
0.7352828591665818
0.6260206290787025
0.6260206290787055
0.7352828591665813
0.6260206290787038
0.8738867454312839
0.8738867454312914
0.7352828591665848
0.6260206290787036
0.6260206290787038
0.6260206290787025
0.8738867454312941
0.8738867454312839
0.6260206290787038
2.104087012064807
0.8738867454312839
0.8738867454312947
0.8738867454312861
0.6260206290787038
0.6319340216885019
0.6260206290787066
0.6260206290787038
0.6260206290787038
0.7352828591665796
0.6260206290787055
2.104087012064807
2.104087012064807
0.8738867454312867
0.6260206290787025
0.7352828591665816
0.7352828591665796
0.8738867454312914
0.6260206290787025
0.8738867454312872
0.7352828591665816
4.434275683306907
1.3919468514617663
0.8738867454312875
0.6260206290787093
0.8738867454312941
1.3575404118666548
0.7352828591665816
0.6260206290787113
4.434275683306907
0.8738867454312947
0.9556864954857204
0.8738867454312872
0.6319340216885019
2.104087012064813
1.0917633396791433
0.8738867454312875
0.8738867454312861
0.8738867454312941
0.6260206290787038
0.7352828591665789
0.6819386047793772
0.6260206290787038
0.8738867454312872
0.7352828591665816
0.8738867454312872
1.902059357568089
0.6260206290787038
0.8738867454312947
0.6260206290787025
0.6260206290787038
0.626020629078707
0.8738867454312872
0.8738867454312896
2.104087012064807
0.8738867454312886
0.8738867454312867
5.3740561241900044
0.6260206290787105
0.8738867454312872
0.8738867454312872
0.7352828591665818
0.6260206290787077
0.8738867454312856
0.6260206290787044
2.104087012064807
0.7352828591665818
0.626020629078707
0.6260206290787025
0.7352828591665818
0.7352828591665901
2.034937275835033
0.8738867454312861
0.6260206290787038
0.8738867454312872
0.6260206290787038
0.8738867454312947
1.1858524218401276
0.8738867454312833
0.6260206290787038
0.6260206290787025
0.8738867454312867
2.1997071574293816
0.6260206290787025
0.6260206290787036
0.8738867454312941
0.8738867454312861
0.6260206290786994
0.6260206290787044
0.7352828591665866
0.7352828591665818
0.6260206290786994
0.6260206290787055
0.6260206290787038
0.8738867454312861
0.8738867454312843
0.8738867454312872
0.8738867454312872
1.736076080948408
0.6260206290787055
0.8738867454312861
0.8738867454312867
2.1040870120648045
0.8738867454312839
0.8738867454313005
0.6260206290787025
0.6260206290787046
0.8738867454312947
0.7352828591665772
0.6260206290787025
0.626020629078704
0.7352828591665814
1.4988355516407168
0.626020629078707
0.6334076889825607
0.8738867454312886
0.8738867454312839
0.6260206290787044
0.626020629078702
0.7352828591665812
0.6260206290787038
0.8738867454312867
0.8738867454312839
2.1040870120648036
2.1040870120648036
0.8738867454312861
0.7352828591665812
0.7352828591665818
1.2062244734128609
0.6260206290787038
0.6260206290787038
0.6260206290787078
0.8738867454312914
0.8738867454312941
0.8738867454312875
1.5384000363082488
0.6260206290787038
2.104087012064812
0.6260206290787044
0.6260206290787038
1.581428594603765
0.6260206290787113
1.5843497210730508
0.6260206290787105
0.8738867454312872
0.7352828591665818
2.104087012064807
0.7352828591665814
0.8738867454312839
0.7352828591665772
2.1040870120648076
0.8738867454312875
0.6260206290787025
1.2062244734128633
0.7352828591665818
0.8738867454312867
0.6260206290787038
0.6260206290787036
0.8738867454312947
0.7352828591665772
0.8738867454312941
0.7352828591665772
0.8738867454312947
2.104087012064807
0.8738867454312941
0.626020629078702
0.8738867454312872
0.6260206290787044
0.8738867454312872
1.2764164703590586
0.8738867454312861
0.5688963450580597
0.7352828591665818
0.7352828591665818
0.6260206290787044
0.8738867454312862
0.7352828591665812
0.8738867454312872
0.6260206290786994
0.7352828591665772
0.6260206290787166
0.8738867454312875
2.104087012064807
0.6260206290787036
0.8738867454312941
1.32747551319546
0.6260206290787038
0.7352828591665812
0.6260206290787038
2.104087012064807
0.8738867454312867
1.5384000363082488
0.8738867454312875
1.5115054248904185
0.7352828591665893
0.6260206290787113
1.5843497210730482
0.6260206290787044
0.6260206290787038
2.104087012064807
0.8738867454312875
2.104087012064807
0.8738867454312867
1.5843497210730508
0.6260206290787044
2.104087012064811
0.7352828591665812
0.626020629078707
0.8738867454312896
0.6260206290786998
0.8738867454312872
0.8738867454312947
0.6819386047793758
0.7352828591665772
0.8738867454312861
0.8738867454312867
0.6260206290787038
0.7352828591665814
2.0408729968259784
0.8738867454312886
0.8738867454312861
0.7352828591665798
0.6516730772224378
0.7352828591665825
0.7352828591665798
0.8738867454312867
2.104087012064807
0.8738867454312875
0.6819386047793775
0.4265328326959397
0.8738867454312872
2.104087012064807
0.6819386047793758
0.6260206290787036
0.6819386047793762
0.6819386047793775
0.7352828591665783
0.8738867454312875
0.8738867454312861
0.681938604779384
0.6260206290787038
0.5688963450580673
0.7352828591665798
0.6819386047793772
0.6260206290787044
0.6819386047793758
0.8738867454312861
0.8738867454312879
0.6260206290787105
0.6819386047793775
0.8738867454312889
0.6260206290786987
0.7352828591665798
0.8738867454312839
0.6260206290787044
0.7352828591665893
2.104087012064807
0.6293095551767811
0.7352828591665825
2.6562948066103416
0.8738867454312867
0.8738867454312872
0.6260206290787044
0.6260206290787038
0.8738867454312875
0.8738867454312867
0.7352828591665818
0.7352828591665818
0.6260206290787038
2.5603335202816178
0.5688963450580597
0.8738867454312828
0.6260206290787038
0.8738867454312839
0.7352828591665893
0.6260206290787116
0.6260206290787113
1.8253132783775028
0.8738867454312872
0.8738867454312941
0.8738867454312872
0.73528285916658
0.8738867454312872
0.6260206290787117
0.6260206290786998
0.8738867454312828
2.104087012064807
0.8738867454312872
0.6260206290787025
0.73528285916658
0.873886745431291
0.7352828591665789
1.2948916493278146
0.8738867454312872
0.7352828591665893
0.8738867454312914
0.8738867454312922
0.7352828591665856
4.601849957842518
2.104087012064807
0.8738867454312875
0.6552921132612161
2.2982271811744934
2.104087012064807
0.8738867454312872
0.8738867454312881
0.8738867454312872
0.6260206290787105
1.206224473412867
0.6260206290787038
1.4128274866031172
0.6260206290787038
0.8738867454312937
1.2170046139708828
0.6260206290786998
0.6260206290787044
0.6260206290787038
0.6260206290787007
0.6260206290787036
0.8738867454312941
0.8738867454312861
0.5858772174072526
2.1040870120648063
0.6260206290787038
0.8738867454312915
0.6260206290787038
0.7352828591665814
0.8738867454312867
0.6260206290786998
0.8738867454312941
0.7352828591665869
0.8738867454312839
2.1040870120648094
0.8738867454312852
0.6260206290786987
1.220263188272765
0.6260206290787038
0.873886745431291
0.8738867454312875
0.6260206290787025
0.7352828591665818
0.5688963450580597
2.1040870120648076
0.73528285916658
0.73528285916658
0.6260206290787038
0.7352828591665814
0.8738867454312872
2.0554761244471913
1.554338082384853
0.7352828591665818
0.7352828591665825
0.8738867454312943
0.8738867454312901
0.8738867454312861
0.6260206290787038
0.8065239066151124
0.8738867454312861
0.6260206290787038
0.6260206290787113
0.7352828591665818
0.7352828591665901
2.1040870120648045
0.6260206290787044
1.348919499084185
0.6260206290787038
0.8738867454312862
0.8738867454312914
0.873886745431288
0.8738867454312875
0.8738867454312872
0.8738867454312922
0.42653283269594244
0.6552921132612205
0.6260206290787113
0.8738867454312862
0.7352828591665901
0.6260206290787025
0.8738867454312875
0.6260206290787036
0.8738867454312833
0.6260206290787025
0.6260206290787044
0.6260206290786994
0.6260206290787025
0.8738867454312872
0.8738867454312875
0.873886745431291
0.6260206290787044
0.6260206290787044
0.7352828591665818
0.8892940029590445
0.8738867454312889
0.7352828591665771
0.7352828591665814
0.6260206290787038
0.7352828591665814
0.8738867454312872
0.8738867454312862
0.7352828591665793
0.6260206290787038
0.6260206290787044
0.7352828591665869
0.6260206290787044
2.104087012064803
0.7352828591665818
0.8738867454312931
0.7352828591665818
0.6260206290786994
0.8738867454312862
0.8738867454312947
0.6260206290786992
1.584349721073046
2.1040870120648067
2.104087012064807
0.6260206290787105
0.8738867454312895
0.8738867454312875
0.8738867454312862
0.6552921132612166
0.8738867454312862
0.6260206290787038
0.7562985363746378
0.7352828591665893
0.73528285916658
0.6260206290787025
0.8738867454312833
0.6260206290787038
0.6260206290786994
0.6260206290787044
0.7352828591665825
0.8738867454312875
0.7562985363746434
0.8738867454312867
2.104087012064807
0.8738867454312872
2.0277708324728736
0.8738867454312886
-0.6744909457390349
0.3978168118515038
-0.7332023472617134
1.1857884771400107
1.2390068729764756
-1.3937934581212656
-1.34406395964423
1.2035355241798689
1.586827882728288
-0.049675007944896675
0.37081753920523625
-0.34682015732026655
0.29028583720437506
0.41751719237804413
-0.3684757247224036
2.1817347057292467
0.3997609011098798
-0.5337565106091315
2.5138593745411844
-0.24334435626194095
0.03479724636972272
3.1225472322203274
-0.4913181355480188
1.1399906164019247
0.3639016508218797
-0.09118157556221747
1.3348917547066381
-1.5096705512753559
0.5212272775554042
-3.25675420977966
0.007112522465538359
2.1881225454223157
0.5946923145117986
-1.7515738349488537
0.15632540294330366
0.6890218662251373
0.31351851710705964
1.203544358748271
-0.2784556976753758
1.0651709818227868
0.35866174564499526
-0.2754109335052176
-1.1008256603634163
1.0211103549521787
-0.17425198543755482
2.9115918266541803
-0.7559918619637752
0.9583520992164043
-0.9131716990434756
0.9124555471822137
-1.1080468847337988
1.68506316375222
0.4245106025759103
-0.30711984381505936
0.3848635704877177
-0.4557434476538922
0.4099122414493536
-0.7061567394788277
0.7647025217593246
-2.9816251570707255
0.09562776876201777
2.0354757349019073
2.413611272629387
-0.25171593581937474
2.1742937436006713
0.25086856753832915
0.4046407222072102
-0.09042709800150338
0.2563049847016051
0.501319375531658
-0.3108098410014962
1.0793368541315587
1.5196030458122372
0.19536483005055127
0.33689765498775853
0.02303905326244703
0.5726917462916727
-4.966733530862887
1.103640030695662
0.029484613080184966
-1.5368251285177787
1.1930959121002749
-0.057383088734609476
1.8994674266999543
0.28422299481420665
1.3973923877696284
0.40346253528125287
-0.699102045997922
0.5807655373989992
-0.3637982825084566
-2.1811289576947437
1.021438350156144
1.8628196030216284
-1.273917531989729
0.24856793147972106
2.15575674722981
-1.116368306812629
1.2080876256972597
2.192991305146774
-0.6160925903620569
-0.5371971952724898
1.9662551600796474
0.3741247966453308
0.13363137169368294
-0.22946153112533538
3.397284955457956
0.7409451281680279
-0.7563579312811353
-0.31131666700633326
2.4758291595207598
1.670194026887753
-1.5066863804030615
0.5842192612250852
-0.6099207493828872
-1.9082171409531548
0.8272074504898054
-1.971288124593606
1.2286272877481705
0.39186031111039565
-0.5275664995575904
-0.03666826400221474
0.7304801663286754
-0.11149660242459135
0.39479835552077974
-0.49131813554801834
1.1399906164019251
0.778492309230767
0.19267652970684745
-0.443057050025894
1.9429258528545215
0.31905259623971416
1.160288273711494
0.34383680478805734
-0.16006313650355558
0.4563575150493615
-0.3972403827886954
0.4563575150493615
-0.3972403827886954
0.2563049847016051
0.501319375531658
-0.748301912950019
0.6941793629903821
1.449376793882345
0.142763639979904
0.38993798937786084
1.3516518396556538
0.3391731153103639
2.0831883544598737
-0.08410231668759012
0.47438339886975867
0.34383680478805734
-0.16006313650355558
1.7754464244432457
-1.0650292705558746
0.41618750364078694
-0.1535571698050334
0.3734063071425159
-0.3439468163982443
-2.1773709579262936
1.0252116242684224
1.0035320975003592
0.3151835027314383
0.06367347328297654
0.37581241678739014
-1.6464390111588736
0.8817004545850908
1.377522345363463
-2.0480083294154916
1.2071598390926155
0.3815871646357598
-0.7485922502392298
0.43601613950007384
0.19034068073414112
2.100242467013113
0.9164095074392403
0.5081193088465059
-0.6151876412325196
0.7994852727177698
-0.3371771346663141
1.6135586694474466
-1.849435612342325
3.435538950844499
-0.15333424807282947
3.3398808458859395
0.5976702077982282
-2.286706181296423
2.3700582339453247
0.13725815575502398
-0.2589552496131729
0.3628320771007436
-0.31131666700633326
2.4758291595207598
0.3734402856777394
0.14438117111335383
0.6277730811073478
-2.945365163761895
2.192991305146774
-0.6160925903620569
-1.5368251285177787
1.1930959121002749
1.3544311309920645
-0.27934007455883536
0.3175830728869987
0.339453912402842
0.09562776876201777
2.0354757349019073
0.3584896901057397
0.19803897282762808
0.3312175544700036
-0.15690187685892584
1.5833892737119724
0.11729237651461784
0.15632540294330366
0.6890218662251373
-0.4913181355480187
1.1399906164019247
-3.048529462948941
1.5309123581227124
0.06215654072038341
1.2744007844516405
-0.3555904009395883
3.017935483603928
0.2563049847016051
0.501319375531658
-0.6448790537440185
2.4437896070199154
2.007999927732132
-0.9624300689010079
1.5234103596886805
0.1784326939053784
1.639770825343481
-0.27800235638866
-2.9158217230954753
2.247850892769905
1.2583716241046892
0.34578757265820376
1.7596229242819792
-0.27850192206126834
0.30906080790454016
-0.08676037768552912
0.37463289746105416
-0.3729718937790256
-1.2516203293715087
2.2331194929215763
0.7789900588667407
0.7338902620818901
0.41597380296994907
-1.2235499435817183
0.3616799379367419
0.1815665081643062
1.0839944242172221
-0.3946393987748393
-0.058469357548407194
2.804230903229118
1.558067023651254
-1.4646843254384625
2.340375013315118
-0.2826171398082358
-0.22615897886065342
0.7849908078465031
-0.35559040093958344
3.0179354836039325
0.19565941879236157
1.3572575852992448
0.09854874422267113
0.420727452632238
1.0216528717536844
0.48376226974860953
0.030648116524646312
0.43120275187520807
-1.3871953489169406
2.392550007102983
0.3258910769651203
-0.13041283097321835
0.25158961778155126
0.16986171705754877
0.29615544671287675
-0.048391924785669144
-0.06636354510081763
1.4366618880810267
1.1492309005502148
0.3703243930256757
1.7086133390196638
-0.25503635599476965
0.40891224171250234
-0.8291725561654321
-0.2172864662684978
0.553328587811111
0.276109990891136
-0.006899287738721153
-0.159589406550456
2.0239988515603025
-0.31131666700633326
2.4758291595207598
-1.850050115126567
1.1675529979432675
0.2563049847016051
0.501319375531658
0.029427483031477467
0.849806018765092
1.4125824612930722
-1.8306266566919278
-0.030972018789523693
0.9071895526004748
0.4777407728327553
-0.6635391974570826
-0.08433922461390646
0.3223452815243075
0.2879114068250387
0.6921335958509954
2.135873241133371
-0.1828742557981728
0.25826607766426385
0.7142356427316939
0.12549580384628536
0.19295901044813554
0.15632540294330366
0.6890218662251373
0.34634475645628443
0.8998983614762833
0.15632540294329983
0.6890218662251335
0.20685075467779773
1.7412336127095227
2.0515145617837938
-0.24674370995904696
0.9695621536593326
0.5408752197501854
0.2106357421759217
1.314023895448144
0.5254909692307219
0.4350914563315619
-0.7980005809618839
1.9924772735804865
-1.5368251285177787
1.1930959121002749
0.3584896901057397
0.19803897282762808
1.2071598390926155
0.3815871646357598
0.30650023339602944
1.5375701157572312
-1.6938060902483743
0.5023093395884982
0.3873657893595292
-0.23720388796892317
-0.7160752853703358
0.7978349051239019
0.05873217330302705
0.41659115888834625
-1.6019765993328694
2.5069250671765433
0.4088176226546079
-0.039315167075284575
2.1574606920480734
-0.06386640817953039
0.31496435275589024
-0.09549567152366745
0.757208859517078
-1.269517650920445
1.781602043464477
-0.23508801869919324
1.354431130992068
-0.27934007455883136
0.8836753593359541
0.1661948856592094
0.7881783092922969
-0.8370806691384808
0.3770155382869015
1.238235798854303
0.02845765818766537
0.8242955664990946
0.5846823275584018
-0.5350855813741455
-0.29725597524048497
2.7097177731297877
1.5150255483859716
0.2110538849333008
0.9547381039265805
0.4627627502530244
-0.12125077593725293
0.593221248399892
0.39371075089162544
-0.5495390210001877
0.3315203538867691
0.6003936862590313
0.30906080790454016
-0.08676037768552912
1.1849685101340592
-0.043337587308676026
-1.5368251285177819
1.1930959121002713
1.18066435521574
0.40991868909178353
2.0080726295847877
-0.8540857862303972
1.7596229242819792
-0.27850192206126834
2.135873241133377
-0.18287425579816663
-1.5368251285177787
1.1930959121002749
-0.7943230418777649
0.5530483336585459
0.41048494331277474
0.674945189963573
-2.098219780238333
1.142526884145711
0.2303068769400646
0.3579227063144116
0.4849737797315348
1.5786798723187787
0.06859416881665742
0.9364895153027746
0.11646135541754961
1.8067569421700227
0.15632540294330366
0.6890218662251373
-0.32700900595498394
3.4538881604555653
0.12549580384628625
0.19295901044813607
0.9839029780958773
-2.016044368587609
1.4557480802603149
-0.5834882333987494
0.41009163407149224
-0.8664154050126555
0.17256328151428416
1.8212340481506484
2.8826798196090153
-0.48387312101101787
1.4248212205567923
0.19378343799177192
0.05873217330302705
0.41659115888834625
-1.692114380930955
1.380077380179658
0.29028583720437506
0.41751719237804413
-0.21846107381160085
2.3125341499178864
-0.3113166670063303
2.4758291595207624
1.8528394762718983
-0.8784325506312944
0.7557033658977182
-0.7347368669696503
-0.43872194994271907
2.530745433378329
-1.1981300856089958
0.6618802661431544
0.047061748715784085
0.831072640278524
0.3433522238690219
0.9332734730598955
-0.42838233473046283
0.8843636312997166
0.9397091665677918
-0.9949066007561312
-1.324240181698719
0.8206567991321484
0.28427389818828713
0.1673195606235348
0.37264423390166745
1.7556461275138466
-2.3479867879861493
1.5509946111178143
0.4736650109582606
-0.603076438194006
1.13740157606201
0.14918212498387412
-1.444776739183983
0.8216111457580317
0.3918603111103995
-0.5275664995575873
0.1307599588293503
0.1937723607251456
0.5371371036875665
0.28966025925655714
-0.04226267775983275
3.2278088648847265
0.3312175544700036
-0.15690187685892584
1.7774413965295073
-1.245355855263568
-1.8812203581860678
2.007195379947201
0.7655732957712446
0.5412970386459098
0.09562776876201777
2.0354757349019073
0.6580613744929542
0.4872421268871443
0.4153241335965056
-0.19642706162376905
-0.9853670325169258
1.2055575073684404
-0.3868000963973959
0.38335737254692415
0.15632540294330366
0.6890218662251373
-1.551464377297598
1.8249215226136426
-0.3966508290764539
0.9122017551652577
1.0262523898884306
0.08562836489747598
0.13700395044373667
1.9433205239591034
2.835128184728712
-0.18690928000173943
-1.4447767391839856
0.821611145758029
2.924061165963955
0.01995193119907924
0.3312175544700036
-0.15690187685892584
-1.4011497523963548
0.7495888681793106
-0.24701617967340708
1.5712639229837055
-0.22936460380588672
1.0618656244915516
-2.0220655412769104
2.0455704069543916
2.6984704870784073
-0.38677315853955846
0.28427389818828713
0.1673195606235348
0.15632540294330366
0.6890218662251373
-1.3270500020141252
2.5587081131810776
0.28422299481420665
1.3973923877696284
0.4006092115108354
-0.6477359079393771
-1.2293981110611132
1.9657227645336768
-0.7833574511904299
1.1834231465103302
0.3155803228761854
0.0905159618927596
-0.3270090059549806
3.453888160455569
0.3422644658047551
-0.1992594326263212
0.5371371036875665
0.28966025925655714
-0.22124959743500067
0.3481592864316064
1.2150162459221916
0.42965436807431207
-0.4913181355480187
1.1399906164019247
-0.21376053025120245
0.403760062804393
0.3639016508218797
-0.0911815755622174
0.8610539967793032
-0.33551052710681395
0.7560485438698458
0.22088962698705542
0.2925141005338526
-0.04374465994702895
2.0066658205521537
-0.7958952821497222
0.2761099908911372
-0.006899287738719202
0.34841061193569733
-0.21975653118815577
0.3895337102742117
0.6625733244854657
0.3848635704877152
-0.45574344765389374
0.4073739417542579
-1.1833314949820506
0.5679905668503922
0.617358495772595
-0.12349537962694392
3.5513891099158874
0.3805217018046641
2.3905795285783187
0.4897793784577144
-1.5359728427546548
-0.11149660242459135
0.39479835552077974
0.3312175544700036
-0.15690187685892584
1.808660362149894
-0.17715875129024025
1.1849685101340592
-0.043337587308676026
0.9390457313043237
0.5189381649556325
-0.4913181355480187
1.1399906164019247
0.1360658967367305
0.19456708309815934
0.09639329121909249
2.78806382225678
1.6376151191580186
0.6262141699243514
0.19916793034099078
0.6885090202575781
0.05403255582806254
2.0486327945722165
0.36079671326145446
-0.27625813479022715
0.041230609155519
2.1352292551226664
1.297874091942257
-0.18174643378138466
1.3681002479765003
0.32044559983813525
0.23194905718771
2.219180580611335
0.8836753593359541
0.1661948856592094
-0.21568684366372257
2.417308303036112
0.3848635704877152
-0.45574344765389374
0.5040648576981777
-1.4199744518412927
0.21268430103587782
0.09966566953114991
0.6409401315063585
0.4893235693319513
1.103640030695662
0.029484613080184966
1.7626445388219787
0.22333203887911005
-1.239384691468253
1.8815610795786866
0.35634326014250667
0.7763654725379827
0.007112522465538359
2.1881225454223157
0.40595042443963597
-0.6267842916102415
1.882426472995553
-0.4844844601588705
0.44214487371528055
0.3124510649406552
0.0913344367762945
3.024933742799641
0.35866174564499903
-0.2754109335052148
0.9324135526975028
0.5173553942875395
0.35634326014250667
0.7763654725379827
0.3446718064606412
0.17046438479879064
-0.49131813554801423
1.1399906164019291
-0.20017660630588813
1.025667037535891
-0.49902611162792876
0.9817368602750519
0.09562776876201777
2.0354757349019073
-0.9595786445232957
1.0472041176739106
-0.38287891829141296
2.388380277226851
0.09562776876201777
2.0354757349019073
0.22963615275328436
1.4331556933487954
0.5040648576981777
-1.4199744518412927
-0.32700900595498394
3.4538881604555653
1.584641503152902
-1.4381168392154835
0.8738161687726483
0.09457566820630174
-1.5368251285177787
1.1930959121002749
0.42512470941073566
-0.1407911159755404
0.47607229231181686
0.04729861083686885
0.5600384648440475
-3.885125798608086
0.1254958038462902
0.1929590104481396
-1.5801611770497301
1.6168005105988579
-1.850050115126567
1.1675529979432675
0.08044322191675492
2.6066712460730677
1.448672716010397
0.25784573005435296
0.003166264470535587
1.4705960089416834
-0.25233275253896653
0.3650610982438718
0.14168485699372654
0.35943708215694514
0.40891224171250234
-0.8291725561654321
0.3175830728869987
0.339453912402842
0.1921551449175232
0.13790494919483412
1.86122823644347
-1.0931873417739326
1.264015395515863
0.6344289910070333
1.2071598390926155
0.3815871646357598
2.0004776070741515
-1.7705109417868774
0.6412095303811784
0.2602012933256469
2.3585416586414336
-0.27494609343689086
0.2229760887133361
0.0853038078298982
-0.410275460051942
0.7725168918700193
0.36171945984006415
2.5325265526066216
0.9695621536593326
0.5408752197501854
0.36171945984006415
2.5325265526066216
0.20293450887896902
0.6104678292067964
1.6539624599704699
0.05150358584115761
1.6881167189042434
0.615022200665236
-0.6662859281053646
0.7777880695849163
0.020712239894291804
1.128816458685488
-1.839936750011961
0.7873074002957801
0.41337391742912355
2.1603667634193195
0.36959988334189303
2.4863397548381747
0.3889414010859028
2.359077798390309
0.4056796937268153
-0.8618537855757609
0.0487167798905785
0.6628448534619944
-0.23436616607224497
0.3509632325453461
1.3004890146000214
-3.4762721887202397
-1.4701610073089382
0.7916709829699314
-0.33653834082770556
0.3711363771249338
0.8573274146828938
0.373654758494922
-3.449614212507773
0.4710892723210203
0.19561737761703757
1.7787903998181942
0.4944485710596768
-1.0097368929195292
0.44807718556296944
-0.3185093352854577
1.6461897755992139
0.25500085348700524
0.4971973652293426
-2.686053120927376
0.5068576448627149
-1.7330346140952324
1.4333818694664506
-0.48807140853623016
0.3834281929636638
0.036765580822452903
0.39916687092459063
-0.6473373646775765
-0.6497465094828695
0.7480406301540777
-2.159289596997027
0.8619861150222627
0.2821306387045714
0.29196343242253475
1.9228792912873311
0.31426485506502255
1.1124104292793804
0.46722165255314935
0.33121755447000356
-0.15690187685892584
0.3874393472307621
0.0728379501253923
0.11164342359670125
0.2876509290750549
0.33958863494596364
-0.1589704336254937
1.9783770528715123
-1.4542348285944713
0.42796124378267775
3.4664777092299928
0.1252434966720281
2.5179401282038185
-0.4894891448135543
1.3384395282047163
0.26078355299672773
1.0248249227023656
0.35866174564499903
-0.27541093350521473
-0.4913181355480187
1.1399906164019247
0.24916830381986238
0.5528785193360366
1.297874091942259
-0.18174643378138272
0.8836753593359539
0.1661948856592094
0.15632540294330366
0.6890218662251373
-0.06623178763695954
0.9364683048906094
-1.9208588663990898
0.5026085486667901
-0.058469357548407194
2.804230903229118
1.4675716481639982
0.2748647820324964
-0.21376053025120048
0.4037600628043949
-0.06420553311823693
2.0316310622037905
1.3775223453634629
-2.0480083294154916
0.19661158059308592
0.6392033448674794
0.4777407728327553
-0.6635391974570826
-0.074473723735576
0.7347279059104347
0.9938262223925817
0.31811548628935354
0.8181263160413099
0.1959560221688905
0.41048494331276614
0.674945189963564
-0.284239124935537
0.40378820680049776
-0.4913181355480188
1.1399906164019247
0.8181263160413077
0.19595602216888824
0.30054033662435276
1.2959266939233909
0.2887138073172458
-0.03474700059167884
1.5150255483859716
0.2110538849333008
0.4631805255472955
-0.47046007996429756
-0.49131813554801423
1.1399906164019291
0.4297153467096577
-0.17256812284749282
0.24236468697162786
0.41903395938931653
1.515025548385975
0.21105388493330415
1.3099409718258854
0.3704284141507476
0.5371371036875657
0.2896602592565565
-2.021132923753699
1.1506208691433935
1.4907599324388794
0.16712902276454478
0.5015679927304346
-2.0854938402054035
1.6280482513131678
-1.1822464259912955
0.3584896901057397
0.19803897282762808
-0.07465329178876212
0.3095204723632471
0.38486357048771525
-0.45574344765389374
-1.8500501151265707
1.1675529979432628
0.35866174564499537
-0.27541093350521767
-0.2866551470576921
0.37172623663832777
0.1605045014009349
2.4354180972763415
1.3231834474023567
-0.5693240477398874
1.9927713804773373
-0.6022861146373761
1.2150162459221883
0.42965436807430857
0.3918603111103994
-0.5275664995575875
1.7596229242819834
-0.2785019220612642
0.3399225342177303
0.26648319392924824
0.3918603111103994
-0.5275664995575875
0.38185326622547106
0.05110146313328164
0.03479724636972227
3.122547232220327
0.7096784293451349
0.6174637320572006
0.2563049847016051
0.501319375531658
0.12549580384628628
0.19295901044813613
-0.3159005278637117
0.9880114163637991
-1.424401144573916
2.642500747445368
-0.43872194994271907
2.530745433378329
0.008523282618961556
0.2760443514176974
-0.13459372032845798
0.9858894078554946
0.819158011986684
0.4399276298762696
1.6631576298606165
-1.6763426459019835
0.09978067905111057
0.8443339404160486
0.99074315646223
-0.2540636924818766
0.7096784293451349
0.6174637320572006
-0.32700900595498394
3.4538881604555653
-0.030972018789523627
0.9071895526004745
0.31526040540238476
0.40942987561204564
-0.055667476714958156
0.7318135103361696
0.9597314913404573
0.17036163227605858
-0.03329356205153068
2.2430266407095716
1.9927713804773373
-0.6022861146373761
-0.7263271461881208
0.778100967114339
-0.15010345386037952
1.7954735250084672
0.28427389818828713
0.1673195606235348
0.12549580384629017
0.19295901044813973
1.3099409718258854
0.3704284141507476
0.38486357048771525
-0.45574344765389374
2.9918060083384828
-0.6720853425643639
1.1820996619663353
0.4017900067021032
1.0897630954686601
0.35187736089339194
0.2055516104240246
2.720051610095833
0.8320453609857219
0.43104672036785086
-0.7052644331263282
0.8635360320721926
0.41387890281939516
-1.0352944825036865
0.4550404326290216
0.544025121223351
0.15632540294330366
0.6890218662251373
-0.9416640145169977
0.46279356952371153
0.2229760887133361
0.0853038078298982
0.9140808907472022
-0.10767330939260819
-0.9324578020532861
0.8518548084552
0.5382882200199153
0.538029544214993
0.7290110581042699
0.3620907169457998
0.5167971138963091
0.5959648149113229
-0.3618398108067361
0.943074926835671
1.7774413965295073
-1.245355855263568
0.3401162733279779
0.9677778505016983
0.4661159247805175
-3.29889714451374
0.41528662532978117
-1.142882663544322
0.4769726871487962
-3.2816703123386275
-0.49782647675985336
2.018182812049129
0.34603350654000803
1.9944223497049811
1.8640151883303822
0.012809237013914745
3.674862202076661E-4
0.2740759066112436
0.514922188508078
0.7814486406954221
0.38486357048771525
-0.45574344765389374
-0.31131666700633326
2.4758291595207598
0.8621592435089479
0.5474121928180831
0.40082866277476736
0.4468441331779323
0.26158688094678195
0.7790399084318933
-5.114218487054038
0.46622398775987195
0.37463289746104494
-0.3729718937790321
0.8087730436216003
0.44701035455157634
-0.030972018789527125
0.9071895526004711
-0.15258204807850886
0.8368266777537048
-0.4913181355480187
1.1399906164019247
0.3694619844640486
-0.27978287185979744
0.21885997983701275
2.700474162117301
-0.39978463957996624
1.3124881560440698
0.042691671511960294
0.37836111242656784
1.1107456006491236
0.4393236060195262
-1.8322899190195998
0.5013444663455755
-0.8398384428444391
1.1969354172136688
0.4201442547244354
-0.10803124267899362
1.7774413965295073
-1.245355855263568
-0.7022655748862369
0.7910773893800583
0.14168485699372413
0.3594370821569435
0.33121755447000356
-0.15690187685892584
-0.1595059737201453
1.0017991489840627
-0.08410231668759012
0.47438339886975867
1.9735568875949436
-0.14237982735394208
-2.5497282743714424
0.8396140767885019
0.3541005924782757
0.805871503188332
-2.062426050279397
0.75296543308925
-0.17743211257996017
0.6444125950591701
2.8257629804512083
-0.5037178915643223
-1.4244011445739198
2.6425007474453643
-1.715199394051761
0.7868102627454231
-0.6662859281053646
0.7777880695849163
-0.19900225609479577
0.752355367045998
-0.2374421461829385
0.42771863967700346
-2.4769783533587217
1.1002405476465347
-0.7982828714410899
0.4035873795134118
-0.18753204443968133
0.7511879548235061
1.0262523898884317
0.08562836489747709
0.1526450358122597
1.003736298766538
0.31312292086973587
0.3670591386024385
1.487095154060629
-0.839823232050216
-1.0542779732012648
2.3215017203498105
-0.0563181749183717
0.3893521612105646
1.4946182722952102
0.3710295306056718
-0.49131813554801423
1.1399906164019291
-0.8459126321164401
0.4075607294550135
0.06367347328297766
0.37581241678739136
0.2555349334015901
0.5161411420916228
0.3886694877023523
-0.4928420825781136
0.12876442973030044
1.16428059043877
0.38486357048771525
-0.45574344765389374
0.06628002733284488
1.7583494644903448
-0.04226267775983291
3.227808864884726
0.3874393472307621
0.0728379501253923
0.16765749822216605
1.9746289913566588
0.23413944897616507
0.2560295618469291
0.40157481643862736
-0.4575991967294202
-3.3700855540559345
0.9705162440121073
0.23413944897616507
0.2560295618469291
0.20369049289120655
0.11978929287281814
1.0216528717536844
0.48376226974860953
0.4088176226546079
-0.039315167075284575
1.1849685101340595
-0.04333758730867586
0.27439846625988157
1.452106380352874
-0.07781519233555219
1.5687466369951932
-0.030972018789523627
0.9071895526004745
1.7401429179898382
-0.5895071532432916
0.45215545427592285
-0.07620540567013169
0.16608670489493202
0.15837911420525105
0.31484677645176434
-0.07327751282823562
0.15632540294330366
0.6890218662251373
1.5150255483859716
0.2110538849333008
-0.0025516184492520516
0.7123207480410407
1.1849685101340595
-0.04333758730867586
-0.03329356205153068
2.2430266407095716
0.3725421186697919
0.5206306155816262
-0.03141565778686925
0.2887925655838054
-0.7194044562262575
0.7914536875450328
-0.8561853869991827
0.40309438826849064
2.950324328613649
-0.2915468891676374
1.53332450733537
-0.6429719535374756
-0.38874994527302664
1.1090274140523944
2.298470859666142
0.13056372541081282
0.44214487371527994
0.3124510649406545
1.4844229794396169
0.11985380425007396
0.42872818886425645
-0.9681641393166082
1.207159839092612
0.381587164635756
0.8106112890405702
0.35666198486788514
0.37371692465180156
0.4982749241534419
1.7596229242819792
-0.27850192206126834
-0.02319068531584119
