GIS
1
0.0
3
I
O
B
6
1600 0
713 0 1
66 0 1 2
101 0 2
560 1
2 1 2
3042
current=capital
current=galvanized
current=West
current=dozen
current=film
current=monetary
current=action
current=threat
current=catalog
current=law
current=fraction
current=restaurant
current=Digital
current=asset-backed
current=House
current=variety
current=over-the-counter
current=quake
current=neutrons
current=partnership
current=proceeds
current=102
current=recovery
current=100
current=year-earlier
current=computing
current=Hewlett-Packard
current=Rep.
current=15,000
current=Systems
current=education
current=nine
current=package
current=hot-dipped
current=lending
current=attorney
current=writers
current=our
current=goals
current=They
current=president
current=cold
current=complaints
current=franchisee
current=state
current=chance
current=day
current=correction
current=loan
current=chemical
current=moment
current=About
current=Washington
current=regulations
current=dangerous
current=option
current=fast-food
current=Conway
current=dividend
current=automotive
current=July
current=articles
current=goods
current=Peter
current=game
current=McDonald
current=northern
current=June
current=hotel
current=division
current=clients
current=UAL
current=Gorbachev
current=sterling
current=network
current=1.3
current=Figure
current=1.8
current=1.5
current=1.6
current=ability
current=1.25
current=decision
current=energy
current=death
current=senators
current=involvement
current=Vietnamese
current=Francisco
current=award
current=cards
current=commentary
current=speculation
current=taxpayers
current=Telephone
current=core
current=Tan
current=ticket
current=Glazer
current=Committee
current=Batman
current=Mexican
current=region
current=delivery
current=four-year
current=Grand
current=liquidity
current=wage
current=opinion
current=spot
current=factory
current=initial
current=factors
current=price
current=source
current=MGM
current=Chase
current=expansion
current=quiet
current=Warner
current=Tax
current=enhancements
current=stake
current=expenses
current=everything
current=Courter
current=affiliates
current=groups
current=reasons
current=Wall
current=Puerto
current=metric
current=Westwood
current=coup
current=per-share
current=Marshall
current=Merieux
current=rules
current=ones
current=Association
current=lobbyist
current=bursts
current=Radio
current=long-distance
current=tape
current=Service
current=wake
current=Cawthorn
current=Richard
current=projects
current=minutes
current=Series
current=joint
current=processing
current=aluminum
current=deficit
current=MCA
current=commission
current=third-quarter
current=Ortiz
current=Nikkei
current=Day
current=professor
current=organization
current=deals
current=Report
current=studio
current=levels
current=Agency
current=Life
current=Murray
current=gasoline
current=feet
current=Andersson
current=wholesale
current=fees
current=Transportation
current=labor
current=task
current=poll
current=Thi
current=survey
current=Savings
current=housing
current=decade
current=Our
current=drives
current=industry
current=policies
current=Caribbean
current=Sala
current=wrongdoing
current=full-year
current=Rosen
current=Beach
current=3\/8
current=She
current=rooms
current=3\/4
current=element
current=personnel
current=supply
current=parking
current=September
current=skiers
current=Costa
current=voters
current=insurers
current=class
current=psychology
current=7\/8
current=Parker
current=your
current=Drug
current=block
current=goal
current=customer
current=certificates
current=department
current=regular
current=Cortese
current=criticism
current=auto
current=Chan
current=Los
current=industrials
current=Co.
current=Oil
current=fastest-growing
current=trader
current=Boren
current=Democrat
current=IRS
current=section
current=500
current=Continental
current=cents
current=regulatory
current=acquisition
current=regulators
current=side
current=Amoco
current=lines
current=fewer
current=News
current=PLC
current=Arbel
current=Home
current=actions
current=her
current=Rico
current=amounts
current=Stanford
current=Democratic
current=quarters
current=differences
current=value
current=Treasurys
current=decades
current=junk-bond
current=Burnham
current=Smalling
current=season
current=System
current=Ski
current=materials
current=options
current=problems
current=United
current=hour
current=Rica
current=rival
current=Securities
current=His
current=unemployment
current=Microsoft
current=Area
current=services
current=Charles
current=promotion
current=calculations
current=Those
current=government
current=Commission
current=N.Y
current=Mrs.
current=Issues
current=YOU
current=One
current=Labor
current=Brothers
current=profits
current=cattle
current=Group
current=him
current=neutron
current=gains
current=improvement
current=variations
current=industrial
current=21
current=22
current=23
current=24
current=25
current=26
current=27
current=28
current=strength
current=29
current=campaign
current=Smith
current=evidence
current=Stevens
current=Journal
current=Hutchinson
current=Florio
current=tritium
current=Research
current=Samuel
current=13
current=Trust
current=14
current=12
current=applicants
current=17
current=18
current=16
current=Her
current=19
current=manufacturing
current=negotiations
current=security
current=modern
current=programming
current=segment
current=50
current=Stores
current=purchases
current=seats
current=44
current=St.
current=45
current=fourth-quarter
current=subordinated
current=40
current=Canada
current=42
current=43
current=Packwood
current=48
current=Sri
current=Nicaraguan
current=company
current=III
current=35
current=36
current=33
current=buy-out
current=31
current=Eagle
current=30
current=ways
current=39
current=video
current=37
current=dollar
current=38
current=70
current=Hong
current=71
current=72
current=leaders
current=140
current=Limited
current=American
current=consideration
current=internal
current=loss
current=excess
current=Asset
current=doctor
current=65
current=64
current=66
current=69
current=industries
current=dentists
current=term
current=home
current=150
current=Olivetti
current=administration
current=principal
current=59
current=nations
current=54
current=Harry
current=51
current=57
current=56
current=Sandinistas
current=Camden
current=specific
current=one-third
current=90
current=machine
current=maturity
current=Merrill
current=five
current=coal
current=Yesterday
current=88
current=contribution
current=minor
current=84
current=Illinois
current=hearings
current=80
current=credentials
current=money-market
current=session
current=oil
current=properties
current=Chiron
current=Lotus
current=Street
current=77
current=legal
current=lot
current=Bankers
current=Boston
current=eight
current=overhead
current=telephone
current=Lambert
current=nothing
current=Salomon
current=image
current=difference
current=Robert
current=pro-choice
current=concerns
current=spokesman
current=commissioner
current=movie
current=countries
current=effect
current=buyers
current=coups
current=output
current=executives
current=battle
current=anything
current=Board
current=offerings
current=Anderson
current=producers
current=Moody
current=attention
current=Hunt
current=metals
current=conference
current=Market
current=Bush
current=ounces
current=unit
current=pound
current=parts
current=blue
current=Paramount-MCA
current=225
current=palladium
current=whole
current=Paul
current=car
current=Department
current=panel
current=Silver
current=Amex
current=household
current=fourth
current=worst
current=August
current=opposition
current=Prudential
current=idea
current=Nguyen
current=cases
current=Panama
current=party
current=Kean
current=King
current=key
current=committees
current=gross
current=medical
current=holdings
current=consecutive
current=nation
current=disorders
current=payment
current=Calif.
current=giant
current=facts
current=television
current=adviser
current=officials
current=200
current=protection
current=pace
current=experts
current=peak
current=chief
current=couple
current=Communications
current=domestic
current=spring
current=development
current=Candlestick
current=Fleischmann
current=mood
current=Time
current=branches
current=machines
current=2.7
current=2.4
current=2.5
current=Mich.
current=2.2
current=2.1
current=member
current=district
current=partner
current=piece
current=Vickers
current=authorities
current=inflation
current=Popular
current=Holiday
current=dinner
current=weeks
current=stores
current=experiments
current=consultant
current=broad
current=rubber
current=riders
current=international
current=effort
current=pence
current=high-risk
current=slump
current=interview
current=production
current=Stephen
current=community
current=expense
current=passengers
current=phone
current=People
current=GTE
current=franchise
current=Martin
current=role
current=biggest
current=start-up
current=fur
current=yields
current=broker
current=Latin
current=concern
current=volatility
current=Jersey
current=State
current=strategies
current=plants
current=precious
current=Hugo
current=Prudential-Bache
current=7.5
current=junk
current=group
current=analyst
current=Fox
current=October
current=credit
current=losses
current=interests
current=data
current=PaineWebber
current=child
current=date
current=deviation
current=Jones
current=makers
current=pictures
current=system
current=world
current=main
current=water
current=approach
current=premiums
current=banking
current=readers
current=Woolworth
current=users
current=proposal
current=equity
current=distribution
current=democracy
current=room
current=credit-card
current=Industry
current=Jackson
current=fact
current=Stocks
current=word
current=analysts
current=school
current=GOP
current=team
current=employers
current=Pons
current=seven
current=family
current=sufficient
current=Johnson
current=DEC
current=visitors
current=IAFP
current=Evans
current=Average
current=jury
current=consumers
current=thing
current=Poor
current=Angeles
current=country
current=1980s
current=Valley
current=futures
current=gap
current=Peterson
current=guideline
current=drugs
current=1\/8
current=FUNDS
current=rights
current=1\/2
current=observers
current=1\/4
current=Business
current=institutions
current=Investment
current=Reform
current=Holdings
current=Senate
current=priority
current=Trustcorp
current=spokeswoman
current=chips
current=mutual-fund
current=third
current=100,000
current=entry
current=Soviet
current=society
current=commodities
current=bills
current=silver
current=kids
current=South
current=Adobe
current=Schwartz
current=participants
current=month
current=Rorer
current=students
current=younger
current=companies
current=Hutton
current=guys
current=expectations
current=Partnership
current=success
current=Democrats
current=6.5
current=prospective
current=6.4
current=original
current=peace
current=largest
current=China
current=You
current=Green
current=Corp.
current=A.P.
current=pilot
current=bill
current=subsidiary
current=Germans
current=statement
current=universal
current=Airways
current=Europe
current=guidelines
current=summer
current=Germany
current=current
current=stories
current=part
current=yen
current=packaging
current=manager
current=notification
current=members
current=1992
current=front
current=Big
current=Tokyo
current=1990
current=numbers
current=victims
current=respondents
current=Broker
current=months
current=chip
current=Order
current=bulk
current=Donaldson
current=County
current=1983
current=1980
current=stuff
current=commitments
current=their
current=merger
current=Development
current=1989
current=1988
current=1987
current=1986
current=1985
current=B.A.T
current=1984
current=list
current=top
current=weekend
current=Markets
current=style
current=margin
current=payments
current=program
current=beneficiaries
current=consensus
current=edition
current=Chairman
current=Gov.
current=so-called
current=facilities
current=creative
current=agent
current=Social
current=advantages
current=associate
current=Mitchell
current=ton
current=legislation
current=January
current=rates
current=Security
current=constitutional
current=Central
current=tables
current=York-based
current=person
current=crude
current=speech
current=funds
current=Capitol
current=dream
current=mortgage
current=economy
current=Sells
current=Ill.
current=carrier
current=defensive
current=surge
current=names
current=reason
current=fiscal
current=bidding
current=opportunities
current=profit
current=Witter
current=Brierley
current=hands
current=Thomas
current=Webster
current=airline
current=recession
current=owner
current=pact
current=efforts
current=Campeau
current=charities
current=Computer
current=pension
current=Bob
current=magazines
current=maintenance
current=discounts
current=college
current=period
current=tickets
current=contract
current=estate
current=bids
current=research
current=Two
current=damage
current=chairman
current=systems
current=items
current=BanPonce
current=commodity
current=Honduras
current=criteria
current=space
current=bureau
current=colleagues
current=quarterly
current=failure
current=standards
current=drug
current=Its
current=hostile
current=balance
current=trend
current=#
current=Insurance
current=basic
current=Another
current=Roger
current=stance
current=300
current=Shearson
current=millions
current=fusion
current=hundreds
current=Some
current=insurer
current=Garcia
current=consumer
current=basis
current=capital-gains
current=Christmas
current=Class
current=chances
current=A
current=final
current=Banco
current=sources
current=Columbus
current=7
current=Party
current=8
current=9
current=investor
current=major
current=rating
current=freight
current=editorial
current=composite
current=commitment
current=agreement
current=States
current=Harvard
current=troubles
current=investments
current=U
current=Connecticut
current=suggestions
current=debate
current=S
current=February
current=station
current=political
current=wells
current=Nynex
current=premium
current=imported
current=Southern
current=laws
current=central
current=signs
current=rejection
current=tons
current=sellers
current=NWA
current=reporters
current=ad
current=imports
current=workers
current=scam
current=life
current=unusually
current=impact
current=century
current=magazine
current=retailers
current=quarter
current=de
current=employment
current=City
current=formal
current=sense
current=taxes
current=carriers
current=Batchelder
current=Noxell
current=trouble
current=Raymond
current=Hollywood
current=democratic
current=privatization
current=congressional
current=private
current=women
current=few
current=toll
current=Gargan
current=Health
current=metal
current=N.J.
current=flexibility
current=urban
current=children
current=speculators
current=transaction
current=General
current=latest
current=Task
current=dividends
current=River
current=powerful
current=warning
current=outlook
current=Aug.
current=risks
current=Chicago
current=lawmakers
current=Consolidated
current=Katz
current=Jack
current=Corp
current=Honecker
current=personal
current=financier
current=Corporate
current=Ohio
current=announcement
current=Your
current=years
current=them
current=businesses
current=SEC
current=German
current=Hurricane
current=stadium
current=attempt
current=reforms
current=Ashland
current=MGM\/UA
current=stress-related
current=profitability
current=Citibank
current=Maalox
current=Ms.
current=property
current=tuition
current=franchisers
current=Daily
current=slide
current=entire
current=addition
current=cancer
current=board
current=Oriani
current=actual
current=tasks
current=Magazine
current=parents
current=portion
current=Jerry
current=Nelson
current=Westridge
current=Cordis
current=reporter
current=Carrion
current=activities
current=thousands
current=Connaught
current=Bay
current=enterprises
current=growth
current=condition
current=year-ago
current=loans
current=Standard
current=planners
current=agency
current=permission
current=events
current=3.5
current=widow
current=advantage
current=Krenz
current=International
current=Fund
current=settlement
current=1,000
current=Textron
current=us
current=things
current=night
current=America
current=Watson
current=afternoon
current=holiday
current=Nicaragua
current=deductions
current=cuts
current=federal
current=1990s
current=Purnick
current=words
current=Fed
current=contrast
current=Pacific
current=table
current=Caterpillar
current=Ngoc
current=Federal
current=due-process
current=preferred
current=Asian
current=Hanover
current=truck
current=eye
current=receivables
current=Sales
current=Court
current=Partners
current=parent
current=Warshaw
current=East
current=Paramount
current=freedom
current=heavy
current=letter
current=age
current=5,000
current=Energy
current=London
current=storm
current=treatment
current=sentence
current=stock-index
current=farmers
current=story
current=abuse
current=strategy
current=David
current=ads
current=flag
current=tendency
current=newspaper
current=Davis
current=Medical
current=furs
current=exchanges
current=experience
current=store
current=volume
current=union
current=information
current=S&P
current=Birnbaum
current=families
current=April
current=approval
current=Ciba-Geigy
current=depression
current=language
current=Justice
current=Air
current=anxiety
current=food
current=Michael
current=Lufkin
current=Basir
current=Steel
current=bonuses
current=agencies
current=institutional
current=Herbert
current=GNP
current=headquarters
current=problem
current=earthquake
current=opening
current=currency
current=track
current=Telegraph
current=future
current=aggressive
current=conditions
current=operator
current=defense
current=category
current=disclosure
current=pretax
current=crash
current=shareholder
current=Nghe
current=indexing
current=Bell
current=Manhattan
current=executive
current=Management
current=transactions
current=Rock
current=Bill
current=Section
current=5\/8
current=discounting
current=Park
current=jobs
current=obvious
current=Maine
current=computer
current=restructuring
current=Dealers
current=takeovers
current=city
current=George
current=dependents
current=Jr.
current=Industrial
current=detectors
current=Dodd
current=worker
current=opportunity
current=programs
current=Van
current=Banc
current=May
current=real-estate
current=leader
current=BNL
current=municipal
current=light
current=transportation
current=leadership
current=Star
current=Information
current=Express
current=Island
current=Cela
current=terms
current=Texas
current=catastrophic
current=massive
current=solicitation
current=Loan
current=shippers
current=firms
current=rest
current=Edward
current=bottom
current=franchisees
current=heart
current=Last
current=mink
current=Gen.
current=series
current=What
current=promotions
current=Ltd.
current=mine
current=job
current=Beta
current=deregulation
current=Price
current=electronic
current=me
current=mill
current=credibility
current=entertainment
current=Reserve
current=days
current=450
current=Espectador
current=platinum
current=outlets
current=congressman
current=electric
current=Frederick
current=experiment
current=Bridge
current=H.
current=Chandler
current=center
current=history
current=high-yield
current=floor
current=cafeteria
current=existing
current=Marlowe
current=buy-back
current=budget
current=scientists
current=California
current=number
current=Technology
current=reputable
current=mergers
current=Florida
current=El
current=documents
current=furriers
current=individual
current=plastic
current=Abramson
current=indictment
current=Reynolds
current=base
current=Industries
current=instance
current=F.
current=Frank
current=sheet
pos=#
current=Northwest
current=Atlantic
current=reserve
current=confidence
current=Stone
current=E.
current=men
current=communications
current=Britain
current=Citicorp
current=Calif
current=material
current=paper
current=career
current=message
current=total
current=Co
current=hospital
current=institution
current=special
current=editor
current=business
current=Tharp
current=D.
current=capacity
current=managers
current=Gillette
current=Guber
current=pages
current=Products
current=Colgate
current=Portfolio
current=slowdown
current=type
current=C.
current=Newport
current=specialists
current=Daly
current=morning
current=construction
current=particular
current=corporate
current=weakness
current=areas
current=debts
current=An
current=Wendy
current=AG
current=Peters
current=retirement
current=investigation
current=step
current=Pictures
current=Sculley
current=various
current=B.
current=Drexel
current=bank
current=William
current=Other
current=A.
current=anybody
current=projections
current=passive
current=artists
current=reduction
current=contracts
current=mutual
current=coverage
current=Quantum
current=THE
current=studies
current=software
current=Telesis
current=Mark
current=course
current=positions
current=everyone
current=checks
current=power
current=apparent
current=field
current=December
current=tender
current=Ross
current=arena
current=Machines
current=storage
current=Proceeds
current=shipments
current=slopes
current=Berlin
current=performance
current=owners
current=body
current=Minpeco
current=directors
current=U.S.
current=winter
current=bright
current=Mass.
current=activity
current=highest
current=OTC
current=professionals
current=Field
current=labor-management
current=someone
current=Associates
current=movement
current=European
current=units
current=Republican
current=Panamanian
current=Dr.
current=Entertainment
current=one-time
current=asset
current=exclusive
current=amendment
current=Many
current=Arias
current=previous
current=reserves
current=San
current=sector
current=Dow
current=litigation
current=staff
current=400
current=restrictions
current=productivity
current=employee
current=Data
current=lives
current=standard
current=abortion
current=copper
current=shelters
current=Revenue
current=benefits
current=consultants
current=war
current=sudden
current=curve
current=0.9
current=Their
current=version
current=10-year
current=0.5
current=Exchange
current=0.2
current=0.3
current=products
current=compensation
current=reaction
current=4.5
current=Webster\/Eagle
current=Analysts
current=forces
current=4.7
current=Meridian
current=4.6
current=ruling
current=portfolio
current=Malaysia
current=95
current=director
current=Mexico
current=organizations
current=beta
current=Fla.
current=ratings
current=academic
current=Food
current=provisions
current=whatever
current=stock-market
current=street
current=Union
current=Judge
current=consumption
current=book
current=instructions
current=films
current=Schulman
current=plant
current=Rates
current=bond
current=Ty
current=situation
current=stations
current=Capital
current=W.
current=concrete
current=author
current=baseball
current=surprise
current=books
current=boiler-room
current=Inc.
current=North
current=equipment
current=huge
current=fertilizer
current=Miami
current=letters
current=maker
current=others
current=Foreign
current=edge
current=shareholders
current=house
current=sale
current=economists
current=hours
current=nonperforming
current=pool
current=TV
current=changes
current=after-tax
current=ounce
current=example
current=salesman
current=R.
current=These
current=Virginia
current=Swiss
current=S.
current=policy
current=Net
current=Financial
current=Springs
current=Harold
current=John
current=Atlanta
current=boiler
current=radio
current=Investors
current=same
current=Hochiminh
current=management
current=T.
current=recessions
current=affiliate
current=World
current=venture
current=types
current=wife
current=annual
current=insurance
current=Inc
current=Services
current=P&G
current=gold
current=choice
current=Manuel
current=shortages
current=Shippers
current=retail
current=candidates
current=enforcers
current=Council
current=pilots
current=string
current=second
current=Japanese
current=proposals
current=operators
current=office
current=week
current=rod
current=Steven
current=Manufacturers
current=presence
current=Wyss
current=Lehman
current=associates
current=salesmen
current=recent
current=Noranda
current=Rican
current=Switzerland
current=bankruptcy
current=majority
current=takeover
current=hepatitis
current=victory
current=area
current=My
current=Volume
current=Westmoreland
current=rice
current=fares
current=Poodle
current=event
current=Falconbridge
current=quality
current=Ariz.
current=Dean
current=Nasdaq
current=Dec.
current=arrangement
current=handful
current=economist
current=Hill
current=Supreme
current=acquisitions
current=M$
current=product
current=dollars
current=fears
current=L.
current=agents
current=conflict
current=affidavit
current=assets
current=La
current=FDA
current=portfolios
current=Bumiputra
current=additional
current=requirements
current=officer
current=feedlots
current=M.
current=response
current=producer
current=Noriega
current=Such
current=technical
current=steep
current=Lynch
current=steel
current=assistant
current=expert
current=Profit
current=membership
current=Goldsmith
current=He
current=savings
current=statements
current=Philip
current=charity
current=Sandinista
current=Reagan
current=Kong
current=margins
current=discount
current=It
current=audience
current=criminal
current=mother
current=potential
current=ownership
current=ease
current=crucial
current=talk
current=hard
current=leading
current=gain
current=single
current=offering
current=question
current=recommended
current=Society
current=easy
current=resorts
current=only
current=point
current=mining
current=direct
current=temporary
current=suit
current=volatile
current=shift
current=present
current=supplies
pos=VBG
pos=VBN
current=sound
current=general
current=service
current=size
current=stress
current=hand
current=wish
current=despite
current=average
current=unusual
current=such
current=established
current=credits
current=tax
current=substantially
current=confident
current=meeting
current=name
current=half
current=This
current=focus
current=enhanced
current=customers
current=cautious
current=hopes
current=claim
current=active
current=Index
current=change
current=skiing
current=living
current=larger
current=slow
current=stand
current=travel
current=cost
current=largely
current=free
current=even
current=fear
current=percentage
current=license
current=young
current=extra
current=quick
current=used
current=sell
current=National
current=James
current=uses
current=burst
current=continuing
current=own
current=limit
current=need
current=-RCB-
current=once
current=start
current=seasonally
current=playing
current=well
current=issues
current=issued
current=''
current=plunge
current=Chancellor
current=Avenue
current=The
current=near
current=look
current=testing
current=lower
current=little
current=admits
current=eligible
current=relatively
current=natural
current=publishing
current=monthly
current=sum
current=traded
current=tight
current=odd
current=hope
current=Next
current=trades
current=valuable
current=targets
current=borrowed
current=scheduled
current=calls
current=ends
current=following
current=rumored
current=rule
current=project
current=voting
current=--
current=amount
current=weekly
current=cut
current=attempts
current=backing
current=mean
current=further
current=houses
current=marketing
current=long
current=cutting
current=notes
current=controls
current=charge
current=much
current=result
current=sign
current=hit
current=offers
current=process
current=cause
current=release
current=ski
current=turnover
current=tax-free
current=leveraged
current=great
current=newly
current=old
current=local
current=turn
current=known
current=collapsed
pos=''
current=fight
current=strategic
current=news
current=modest
current=firm
current=runs
current=chosen
current=trading
current=off
current=test
current=promising
current=military
current=pressing
current=Americans
current=down
current=results
current=riskier
current=values
current=subject
current=substantial
current=hold
current=decline
current=greater
current=estimated
current=slightly
current=increasingly
current=stronger
current=operations
current=low
current=That
current=estimates
current=renewed
current=buying
current=called
current=record
current=time
current=doubt
current=somewhat
current=difficult
current=under
current=proposed
current=commissioned
current=announced
current=popular
current=Still
current=valued
current=eager
current=older
current=neither
current=cheap
current=order
current=dramatic
current=School
current=drive
current=Only
current=publicly
current=pressure
current=states
current=around
current=raising
current=features
current=worth
current=overall
current=moves
current=door
current=revised
current=yield
current=provision
current=made
current=successful
current=position
current=fall
current=easing
current=but
current=views
current=Treasury
current=reading
current=senior
current=buy
current=making
current=collapse
current=jump
current=heavily
current=Japan
current=climb
current=declining
current=spread
current=left
current=consulting
current=spent
current=public
current=true
current=worry
current=slight
current=works
current=move
current=hardly
current=advice
current=throughout
current=saying
current=advanced
current=signal
current=show
current=face
current=work
current=either
current=continued
current=places
current=overnight
current=shot
current=health
current=access
current=shop
current=lead
current=declines
current=Lawson
current=study
current=simply
current=boost
current=created
current=simple
current=yet
current=marks
current=More
current=recently
current=increase
current=canceled
current=vote
current=return
current=starting
current=rally
current=year
current=elected
current=6.9
current=Most
current=past
current=often
current=park
current=perceived
current=elsewhere
current=producing
current=lucky
current=mark
current=least
current=...
current=secret
current=charges
current=demand
current=timing
current=too
current=needed
current=advisers
current=quite
current=technology
current=bet
current=foreign
current=finance
current=finding
current=fairly
current=indicated
current=right
current=revenue
current=kind
current=deal
current=live
current=longer
current=Stick
current=flow
current=owned
current=debt
current=strong
current=equal
current=tough
current=clear
current=bit
current=open
current=reports
current=ratio
current=bid
current=big
current=Baker
current=operating
current=inside
current=comfortable
current=commercial
current=less
current=court
current=answer
current=note
current=bullish
current=media
current=required
current=increases
current=caution
current=forecasts
current=trust
current=troubled
current=measure
current=insured
current=!
current=deciding
current=improved
current=widely
current=bear
current=waste
current=?
current=4
current=listed
current=6
current=certain
current=registered
current=:
current=,
current=building
current=.
current=1
current=3
current=2
current=%
current=offered
current=comment
current=&
pos=TO
current=cover
current=`
current=go
current=woman
current=economic
current=sharp
current=added
current=net
current=new
current=pretty
current=upward
current=share
current=based
current=complete
current=wider
current=at
current=expected
current=lift
current=serious
current=virtually
current=force
current=combined
current=its
current=graphics
current=promise
current=trade
current=structure
current=risky
current=filing
current=perhaps
current=closely
current=thin
current=possible
current=like
current=exports
current=tried
current=then
current=drop
current=roughly
current=bad
current=former
current=``
current=-LCB-
current=far
current=related
current=mostly
current=overseas
current=generally
current=line
current=purchase
current=damaged
current=short-term
current=wrong
current=real
current=reported
current=reduced
current=dubbed
current=sharply
current=available
current=increased
current=other
current=shows
current=regional
current=use
current=air
current=familiar
current=form
current=call
current=scams
current=very
current=sweetened
current=given
current=factor
current=adjusted
current=significant
current=advance
current=first
current=Act
current=guaranteed
current=world-wide
current=rebound
current=flat
current=guarantees
current=care
current=blame
current=important
current=plus
pos=PDT
current=short
current=thinking
current=quoted
current=Cancer
current=healthy
current=when
pos=``
current=so
current=novel
current=repeated
current=to
current=lack
current=suits
current=act
current=selected
current=audit
current=than
current=up
current=selling
current=Bank
current=through
current=reporting
current=fund
current=completed
current=comparable
current=of
current=exercise
current=fast
current=beginning
current=working
current=no
current=or
current=support
current=competing
current=case
current=cash
current=level
current=issue
current=planning
current=Stock
current=convicted
current=fare
current=All
current=land
current=race
current=increasing
current=if
current=end
current=in
current=auction
current=and
current=full
current=fighting
current=black
current=pitch
current=White
current=mind
current=not
current=waiting
current=now
current=unfair
current=national
current=remaining
current=-LRB-
current=accounts
current=rescue
current=negative
current=promises
current=turns
pos=:
current=vice
current=run
current=better
current=failed
current=claims
pos=.
pos=,
pos=)
current=while
current=profitable
current=stay
pos=(
current=abroad
current=First
current=common
current=else
current=sort
current=particularly
current=over
current=critical
current=play
current=especially
current=high
current=place
current=plan
current=press
current=control
current=Third
current=daily
current=Both
current=measures
current=investment
current=likely
current=courts
current=view
current=changing
current=independent
current=temporarily
current=man
current=spending
current=soft
current=growing
current=close
current=report
current=range
current=competitive
current=protected
current=paying
current=essentially
current=governor
current=risk
current=rise
current=-RRB-
current=raise
current=thought
current=holding
current=different
current=above
current=partly
current=rising
current=shares
current=slowing
current=set
current=index
current=matched
current=estimate
current=rate
current=limited
current=twice
current=talks
current=Not
current=managing
current=head
current=way
current=heat
current=target
current=interest
current=conservative
current=Even
current=saw
pos=JJS
current=reform
current=sponsor
current=wind
current=official
current=chains
current=best
current=outstanding
current=acts
current=hits
pos=CC
current=necessary
current=due
current=post
current=shipping
current=influence
current=plans
current=favor
current=back
current=exchange
current=corner
current=chemists
current=enough
current=U.K.
pos=FW
current=financing
current=higher
current=coming
current=watched
current=smaller
current=points
current=steps
current=competition
current=losing
current=offer
current=account
current=similar
current=advertising
current=poor
current=times
current=possibility
current=published
current=police
current=York
current=There
current=New
current=large
current=extremely
current=between
current=retailing
current=ride
current=help
current=income
current=merely
current=No
current=weather
current=planned
current=planner
current=small
current=rich
current=forward
current=benefit
current=specified
current=effective
current=On
current=held
current=expensive
current=wide
current=saving
current=significantly
current=strike
current=really
current=going
current=highly
current=billion
current=investing
current=decrease
current=previously
current=orders
current=million
current=costs
current=figure
current=both
current=alleged
current=sets
current=Institute
current=closing
current=expanded
current=offices
current=weak
current=J.
current=usual
current=guarantee
current=good
current=here
current=almost
pos=VBP
pos=VBD
current=one
pos=VBZ
current=University
current=nearly
current=President
current=each
current='s
current=British
pos=RBR
pos=RBS
current=next
current=10
current=11
current=15
current=markets
current=how
pos=PRP
current=money
current=there
pos=POS
current=today
current=more
current=most
current=just
current=double
current=the
current=last
pos=VB
current=$
current='
current=a
pos=RB
current=earlier
current=as
current=late
current=this
pos=WP
current=that
current=what
current=any
current=bonds
current=all
current=stock
pos=$
pos=NNP
pos=NNS
current=several
pos=WRB
pos=PRP$
current=bigger
pos=WDT
current=about
current=stop
current=early
pos=JJR
pos=DT
current=market
pos=CD
pos=EX
pos=NN
current=figures
pos=JJ
pos=IN
current=securities
current=three
current=movies
current=Saturday
current=Western
current=Monday
current=Veronis
current=anyone
current=computers
current=Seidman
current=long-term
current=Sir
current=another
current=dealers
current=Canadian
current=his
current=20
current=Nov.
current=AT&T
current=60
current=brokerage
current=55
current=six
current=she
current=75
current=Vietnam
current=banks
current=these
current=employees
current=people
current=whose
current=minimum
current=Airlines
current=investors
current=Sen.
current=two
current=Sept.
current=Columbia
current=many
current=questions
current=traders
current=Wednesday
current=Trelleborg
current=prices
current=Friday
current=you
current=USX
pos=NNPS
current=something
current=itself
current=maximum
current=he
current=5
current=I
current=Picop
current=committee
current=fraud
current=an
current=himself
current=Mr.
current=they
current=tomorrow
current=financial
current=Sony
current=we
current=individuals
current=Chemical
current=my
current=sales
current=Tuesday
current=Jon
current=four
current=it
current=admission
current=SciMed
current=who
pos=WP$
current=lawyer
current=stocks
current=earnings
current=which
current=Berkeley
current=those
current=billions
current=whom
current=Messrs.
current=some
current=holders
current=98
current=We
current=themselves
current=permanent
current=Jan.
current=yesterday
current=commissions
current=Congress
current=brokers
current=Oct.
current=Thursday
current=every
current=returns
current=file
current=fill
current=acquire
current=seek
current=seen
current=seem
current=After
current=sitting
current=got
current=seems
current=although
current=exclude
current=delayed
current=Says
current=Then
current=out
current=Nevertheless
current=sometimes
current=however
current=citing
current=earn
current=remains
current=normally
current=together
current=were
current=Maybe
current=come
current=with
current=led
current=from
current=Among
current=let
current=n't
current=climbed
current=ever
current=create
current=permit
current=succeed
current=acquired
current=raised
current=played
current=disclose
current=guilty
current=establish
current=won
current=hoped
current=affect
current=find
current=take
current=achieved
current=flying
current=participate
current=sent
current=privatized
current=ahead
current=includes
current=included
current=send
current=shortly
current=Like
current=turned
current=wait
current=hiring
current=becoming
current=keeping
current=before
current=know
current=sure
current=consider
current=posting
current=appear
current=trying
current=where
current=have
current=gets
current=prompted
current=sending
current=allowed
current=kept
current=doing
current=meaning
current=dropped
current=feel
current=moving
current=able
current=filed
current=Although
current=slid
current=want
current=operate
current=went
current=knew
current=has
current=telling
current=fell
current=had
current=felt
current=owns
current='d
current=reached
current='m
current=accept
current=prepared
current=declared
current=reaches
current=acknowledges
current=safe
current=officially
current=unless
current=tougher
current=during
current=lose
current=How
current=agreed
current=annually
current=reduce
current=designed
current=appeared
current=running
current=helping
current=indicating
current=clearly
current=Because
current=said
current=noted
current=compares
current=compared
current=happen
current='re
current=obtain
current=seemed
current=predicting
current=Though
current=asking
current=adding
current=putting
current=reflecting
current=probably
current=knows
current=easily
current=beyond
current=purchased
current='ve
current=attributed
current=lost
current=until
current=goes
current=might
current=gathered
current=reckons
current=rather
current=sit
current=wanted
current=poorly
current=developed
current=grow
current=hampered
current=begun
current=tell
current=rose
current=for
current=though
current=done
current=While
current=alone
current=except
current=surged
current=along
current=put
current=fly
current=Until
current=can
current=recorded
current=could
current=fail
current=restore
current=applied
current=moved
current=Meanwhile
current=provides
current=conducted
current=become
current=provided
current=push
current=threatened
current=ensure
current='ll
current=because
current=filled
current=announce
current=puts
current=caught
current=does
current=comes
current=experienced
current=meet
current=grew
current=started
current=grown
current=ending
current=occur
current=knocking
current=instead
current=stopped
current=From
current=watch
current=For
current=recalls
current=continues
current=reflects
current=preparing
current=pushed
current=passed
current=contribute
current=Once
current=gotten
current=including
current=discuss
current=usually
current=intended
current=make
current=think
current=placed
current=presented
current=noting
current=falls
current=declined
current=received
current=Rather
current=also
current=introduced
current=stuck
current=linked
current=again
current=per
current=keep
current=stepped
current=priced
current=improve
current=get
current=caused
current=leave
current=pass
current=pay
current=spend
current=managed
current=harder
current=Perhaps
current=try
current=stayed
current=translated
current=expressed
current=began
current=plunged
current=impressed
current=carry
current=soared
current=rejected
current=allow
current=immediately
current=actually
current=indeed
current=charged
current=pick
current=should
current=rallied
current=indicates
current=predicted
current=using
current=learn
current=boosting
current=Yet
current=But
current=give
current=carried
current=Within
current=learned
current=covered
current=named
current=contributed
current=struck
current=entirely
current=without
current=against
current=considered
current=acquiring
current=serve
current=paid
current=retire
current=begin
current=within
current=offset
current=indicate
current=vary
current=gave
current=allows
current=transfer
current=Take
current=continue
current=earned
current=already
current=beat
current=predict
current=;
current=-
current=deliver
current=require
current=decided
current=build
current=representing
current=fully
current=built
pos=UH
current=quickly
current=be
current=took
current=lies
current=by
current=across
current=thus
current=approve
current=recommend
current=committed
pos=RP
current=narrowly
current=via
current=settled
current=primarily
current=provide
current=do
current=prevent
current=helped
current=ca
current=During
current=told
current=sells
current=ask
current=operates
current=attract
current=showed
current=into
current=Instead
current=read
current=reach
current=taken
current=takes
current=represents
current=ran
current=expect
current=generate
current=ended
current=would
current=privately
current=bring
current=seeking
current=aggressively
current=looks
current=refuse
current=getting
current=below
current=develop
current=happened
current=away
current=Separately
current=accused
current=approved
current=concluded
current=causing
current=came
current=When
current=wo
current=looking
current=gives
current=Moreover
current=found
current=reacted
current=means
current=showing
current=wants
current=ago
current=thinks
current=suggests
current=followed
current=remain
current=carrying
current=represented
current=attracted
current=oust
current=lowered
current=add
current=interested
current=reflected
current=backed
current=borrow
current=impossible
current=And
current=providing
current=invested
current=worked
current=according
current=always
current=on
current=initially
current=Also
current=stealing
current=posted
current=submit
current=needs
current=admitted
current=is
pos=SYM
current=earmarked
current=avoid
current=Despite
current=converted
current=apparently
current=controlled
current=entered
current=According
current=upon
current=soon
current=win
current=boosted
current=promised
current=why
current=jumped
current=encouraged
current=asked
current=However
current=discussing
current=met
current=By
current=measured
current=existed
current=expand
current=As
current=At
current=outside
current=include
current=may
current=believes
current=reflect
current=must
current=optimistic
current=qualify
current=assume
current=considering
current=pushing
current=conceded
current=appears
current=launched
current=directly
current=pulled
current=see
current=forced
current=sold
current=Now
current=Nor
current=described
current=insists
current=triggered
current=was
current=otherwise
current=brought
current=defined
current=whether
current=Indeed
current=bought
current=hear
current=after
current=say
current=totaled
current=gained
current=pursue
current=involved
current=covers
current=currently
current=receive
current=determined
current=voted
current=believe
current=unveiled
current=becomes
current=covering
current=follows
current=Since
current=Over
current=will
current=disclosed
current=tumbled
current=match
current=suspended
current=typically
current=protect
current=makes
current=maintain
current=toward
current=having
current=behind
current=involving
current=expects
current=So
current=To
current=changed
current=cited
current=still
current=Looking
current=remained
current=closed
current=Why
current=leaving
current=squeezed
current=never
current=released
current=invest
current=Here
current=Of
current=maybe
current=hurt
current=retain
current=Or
current=became
current=Under
current=suggest
current=among
current=taking
current=replace
current=being
current=associated
current=says
current=Before
current=produce
current=giving
current=holds
pos=MD
current=With
current=shipped
current=opened
current=claiming
current=revive
current=unchanged
current=frequently
current=denied
current=suggested
current=maintained
current=did
current=hire
current=watching
current=been
current=save
current=sought
current=handle
current=adds
current=since
current=gone
current=contends
current=produced
current=In
current=figured
current=If
current=later
current=are
1.1025657728406542
2.4217550122781497
1.5498327900565132
1.1025657728406597
1.1025657728406488
2.4217550122781555
1.102565772840643
1.1025657728406473
1.1025657728406497
1.1025657728406524
1.1025657728406497
1.1025657728406473
0.912285557541282
2.421755012278156
0.9122855575412971
1.1025657728406488
2.4217550122781457
1.1025657728406597
0.953880785529828
1.1025657728406444
0.953880785529827
0.9246639488254423
1.1025657728406473
0.9246639488254493
2.4217550122781475
5.437951059464152
0.9122855575412935
0.9122855575412839
0.9246639488254409
1.5928773738579447
1.1025657728406606
0.9246639488254444
1.1025657728406488
2.4217550122781457
1.1025657728406497
1.102565772840645
0.9538807855298284
0.6891395766831354
0.9538807855298265
1.8680223494308104
1.1025657728406628
2.4217550122781537
0.9538807855298389
1.1025657728406497
1.8604419072416645
1.1025657728406444
1.1025657728406542
1.1025657728406497
1.1025657728406597
1.1025657728406444
1.1025657728406606
7.959657952701239
0.9122855575412919
0.9538807855298284
2.4217550122781497
1.1025657728406488
1.1025657728406575
0.9122855575412873
1.1025657728406515
2.4217550122781497
0.9122855575412816
0.9538807855298284
0.9538807855298325
0.9122855575412919
1.1025657728406482
0.9122855575412883
2.4217550122781497
0.9122855575412839
1.1025657728406444
1.1025657728406433
0.9538807855298307
0.9122855575412852
0.9122855575412896
1.1025657728406444
1.1025657728406542
0.9246639488254409
1.1025657728406502
0.9246639488254366
0.9246639488254366
0.924663948825441
1.1025657728406488
0.9246639488254409
1.1025657728406515
1.102565772840645
1.1025657728406606
0.9538807855298389
1.1025657728406502
2.278202563956075
0.9122855575412839
1.1025657728406497
0.9538807855298284
1.1025657728406497
1.1025657728406502
0.953880785529828
0.9122855575412988
1.1025657728406473
0.9122855575412873
1.1025657728406473
0.9122855575412896
0.9122855575412988
0.9122855575412893
2.4217550122781497
1.1025657728406473
1.1025657728406502
2.4217550122781497
0.9122855575412873
1.1025657728406488
1.1025657728406497
1.1025657728406497
1.1025657728406473
1.1025657728406488
2.421755012278151
0.9538807855298265
1.4641064252497562
1.1025657728406502
0.9122855575412883
0.9122855575412872
1.1025657728406502
2.4217550122781497
0.9122855575412971
0.9122855575412893
0.9538807855298284
1.1025657728406557
0.9538807855298232
1.1025657728406497
0.9122855575412915
0.9538807855298284
0.9538807855298307
0.953880785529828
0.9122855575412911
0.9122855575412839
2.4217550122781497
0.9122855575412896
1.1025657728406515
2.4217550122781497
0.9122855575412883
0.9122855575412873
0.953880785529828
0.9538807855298389
0.9122855575412845
1.1025657728406502
0.953880785529827
0.9122855575412896
2.4217550122781497
1.1025657728406497
0.9122855575412915
1.1025657728406473
0.9122855575412873
0.9122855575412994
4.279676645620513
0.9538807855298307
0.9122855575412872
2.4217550122781555
1.1025657728406473
1.1025657728406497
1.1025657728406597
0.9122855575412988
1.1025657728406473
2.4217550122781515
0.9122855575412896
0.9122855575412988
0.9122855575412893
1.1025657728406444
1.1025657728406444
0.9538807855298389
0.9122855575412896
1.1025657728406575
0.953880785529836
0.9122855575412896
0.9122855575412915
0.9122855575412896
1.1025657728406497
0.953880785529827
0.9122855575412816
2.421755012278151
0.9538807855298325
0.9632071683841521
1.1025657728406606
1.1025657728406606
1.1025657728406575
0.9122855575412883
1.1025657728406502
0.9122855575412873
1.1025657728406497
1.1025657728406442
0.6891395766831226
0.9538807855298284
1.1025657728406617
0.9538807855298325
0.9122855575412896
0.9122855575412896
1.1025657728406473
2.4217550122781497
0.9122855575412839
0.9122855575412948
0.9246639488254479
1.8680223494308095
0.9538807855298221
0.9246639488254479
1.1025657728406497
0.9538807855298325
1.1025657728406473
1.1025657728406497
0.9122855575412925
0.953880785529828
0.9122855575412919
0.9538807855298221
0.953880785529828
1.1025657728406502
1.1025657728406597
0.9246639488254405
0.9122855575412896
0.689139576683123
0.9122855575412896
1.1025657728406473
1.1025657728406473
1.1025657728406497
0.9538807855298284
1.1025657728406597
2.421755012278157
0.9122855575412896
1.1025657728406488
1.1025657728406497
0.9122855575412935
0.9122855575412909
0.9538807855298265
0.9122855575412843
0.9122855575412896
2.4217550122781497
1.1025657728406488
0.9122855575412873
0.9122855575412896
0.9122855575412832
1.1025657728406473
0.9246639488254459
0.9122855575412896
0.9538807855298312
2.4217550122781457
1.1025657728406597
0.953880785529827
1.1025657728406575
0.9122855575412968
0.9538807855298246
3.883864557750202
0.9122855575412873
0.9122855575412915
0.9122855575412896
0.9122855575412883
0.953880785529828
0.8154587622877347
0.9122855575412883
0.9538807855298389
0.9122855575412873
2.3282665130312292
0.953880785529827
0.9538807855298265
1.1025657728406577
2.013223201150944
0.9538807855298284
1.1025657728406606
0.9122855575412896
0.9122855575412896
1.1025657728406488
0.9122855575412896
0.9632071683841521
0.953880785529841
0.9538807855298325
0.9538807855298286
0.9122855575412872
1.1025657728406497
0.9122855575412883
1.9538816228889027
1.3370613250632692
0.6891395766831212
1.1025657728406444
0.9122855575412896
0.9122855575412896
0.9538807855298213
0.9122855575412883
1.1025657728406497
0.9538807855298265
2.316082841446399
1.102565772840643
0.9122855575412919
0.9122855575412873
0.9122855575412883
0.9436364627636971
1.868022349430814
0.9246639488254487
0.9122855575412988
1.1520734349647976
0.9538807855298232
0.953880785529841
0.9122855575412845
1.8680223494308155
1.1025657728406497
0.9538807855298217
1.1025657728406606
0.953880785529828
2.4217550122781475
0.9246639488254356
0.924663948825441
0.924663948825441
0.924663948825454
0.924663948825436
0.9246639488254423
0.9246639488254423
0.9246639488254521
1.1025657728406473
0.9246639488254521
1.102565772840643
0.9122855575412873
1.1025657728406542
0.9122855575412896
0.9202830490559546
0.9122855575412893
0.9122855575412816
1.1025657728406502
0.9122855575412896
0.9122855575412896
0.9246639488254452
0.9122855575412935
0.9246639488254521
0.9246639488254449
0.9538807855298265
0.9246639488254366
0.9246639488254512
0.9246639488254366
0.6891395766831245
0.9246639488254459
1.1025657728406488
0.9538807855298265
1.1025657728406524
2.2135206807869148
1.1025657728406497
1.1025657728406497
0.924663948825446
0.9207383549737681
0.953880785529828
0.9538807855298284
0.9246639488254423
0.9122855575412896
0.9246639488254521
2.421755012278149
7.8392809825547705
0.9246639488254479
0.9122855575412896
0.9246639488254409
0.9246639488254423
0.9122855575412896
0.924663948825441
0.9122855575412873
2.4217550122781497
1.102565772840665
0.9122855575412896
0.924663948825454
0.924663948825441
0.9246639488254366
1.102565772840652
0.9246639488254521
0.9122855575412883
0.9246639488254373
0.9538807855298325
0.9246639488254423
1.1025657728406497
0.9246639488254409
1.102565772840643
0.9246639488254409
0.9246639488254366
0.9122855575412883
0.9246639488254409
0.9246639488254423
0.9538807855298314
0.9246639488254423
0.9122855575412893
1.6713755577099165
1.1025657728406497
2.4217550122781497
1.102565772840645
2.37342851957339
0.9122855575412896
1.1025657728406497
0.9246639488254356
0.9246639488254423
0.9246639488254423
0.9246639488254423
0.953880785529836
0.9538807855298284
4.238291802603802
1.1025657728406515
0.9246639488254423
0.9122855575412919
1.1025657728406542
2.133846777839297
0.9246639488254409
0.953880785529827
0.9246639488254423
0.9122855575412896
0.924663948825441
0.924663948825441
0.9246639488254423
2.013223201150943
0.9122855575412896
2.4217550122781497
1.1025657728406497
0.9246639488254423
1.1025657728406444
1.1025657728406488
0.9122855575412893
0.9246639488254507
1.1025657728406597
1.1025657728406473
0.9246639488254423
1.1025657728406502
2.4217550122781497
0.9246639488254423
0.9122855575412994
0.9538807855298265
0.9246639488254366
0.9538807855298284
2.4217550122781497
1.1025657728406497
1.102565772840661
0.953880785529828
0.9122855575412896
0.9122855575412896
0.9122855575412994
0.9246639488254409
2.4217550122781457
1.1025657728406595
0.9207383549737681
0.9122855575412988
0.9246639488254452
2.0654819031860194
1.1025657728406533
0.9122855575412896
1.1025657728406597
0.9122855575412839
1.1025657728406497
1.1025657728406606
0.9122855575412919
2.421755012278149
0.9538807855298325
1.1025657728406562
1.1025657728406473
1.1025657728406606
0.9538807855298221
1.1025657728406575
0.9538807855298213
0.9538807855298265
1.1025657728406597
0.9538807855298325
1.1025657728406497
1.1025657728406597
0.9122855575412948
0.953880785529827
0.9122855575412873
0.9538807855298261
0.9122855575412883
1.1025657728406473
0.9122855575412968
0.9538807855298221
1.1025657728406502
0.9465076586016978
0.9122855575412858
0.953880785529828
1.102565772840649
1.1025657728406542
0.9538807855298221
2.2135206807869148
2.421755012278147
0.9246639488254423
1.1025657728406473
2.3158338092361666
0.9122855575412839
1.1025657728406606
0.9122855575412994
1.1025657728406597
1.3826743945912492
0.9122855575412935
1.1025657728406502
2.4217550122781466
2.313500182144735
0.9122855575412921
1.1025657728406597
0.9122855575412896
1.1025657728406488
0.9122855575412883
4.675843228210113
0.9122855575412968
1.1025657728406575
0.9122855575412893
0.9122855575412873
2.421755012278157
0.9538807855298284
2.421755012278157
2.4217550122781537
0.953880785529841
2.4217550122781497
1.1025657728406515
0.9538807855298284
1.1025657728406488
0.9122855575412893
1.1025657728406497
0.9538807855298284
1.102565772840643
1.1025657728406473
0.9538807855298386
0.9246639488254366
1.1025657728406502
1.1025657728406473
0.953880785529828
1.1025657728406497
2.285172727987713
1.1025657728406457
1.3034001228400274
2.421755012278147
1.1025657728406488
1.1025657728406597
0.9122855575412873
0.9122855575412873
1.1025657728406497
0.9122855575412893
0.9538807855298284
0.953880785529841
0.9246639488254423
0.9246639488254409
0.9246639488254521
0.9122855575412896
0.924663948825441
0.9246639488254423
1.1025657728406502
1.1025657728406502
1.1025657728406524
1.1025657728406473
0.9122855575412896
0.9538807855298389
1.1025657728406453
0.9122855575412839
0.9122855575412968
1.1025657728406497
0.9538807855298314
3.5958008805808332
0.9538807855298261
1.1025657728406444
2.421755012278149
1.1025657728406473
0.9538807855298284
2.421755012278149
1.1025657728406442
1.1025657728406497
2.4217550122781497
1.1025657728406502
1.1025657728406502
1.1025657728406486
0.9122855575412893
1.1025657728406473
1.1025657728406473
0.9538807855298284
1.1025657728406473
0.9538807855298307
0.9122855575412994
1.1025657728406597
0.9122855575412896
1.1025657728406524
2.31350018214473
2.2585899922249357
1.1025657728406606
0.9538807855298221
1.102565772840643
0.9122855575412893
5.317052623600833
1.1025657728406524
0.9122855575412988
0.9439146305367888
0.9538807855298284
0.953880785529828
2.4217550122781497
0.9122855575412883
0.9122855575412896
0.924663948825441
1.1025657728406457
1.6339000251081537
1.1025657728406515
0.9122855575412921
0.9122855575412816
1.1025657728406555
0.9538807855298408
0.9538807855298325
0.953880785529841
0.9122855575412896
1.1025657728406488
6.141608407068261
1.1025657728406488
0.9122855575412994
0.9538807855298213
0.9538807855298284
1.1025657728406577
1.1025657728406524
2.421755012278149
1.102565772840643
1.1025657728406606
0.9538807855298265
1.1025657728406562
0.9538807855298265
0.9122855575412896
0.9538807855298284
1.1025657728406533
1.1025657728406442
1.1025657728406497
1.1025657728406497
1.1025657728406575
1.1025657728406444
1.0305651609511974
0.9122855575412994
1.1025657728406524
0.9538807855298284
1.1025657728406473
0.9538807855298368
1.1025657728406497
0.9122855575412896
1.1025657728406488
0.9538807855298265
0.9122855575412873
0.9246639488254452
1.1025657728406562
2.4217550122781497
0.9122855575412968
0.9122855575412839
0.9538807855298284
0.9122855575412893
0.9122855575412873
0.9122855575412988
1.1025657728406502
0.9538807855298221
1.1025657728406575
0.9122855575412873
0.9122855575412921
1.1025657728406457
0.9246639488254521
0.9122855575412839
0.9538807855298261
1.1025657728406473
0.9122855575412919
1.1025657728406473
0.953880785529841
0.9246639488254479
0.9538807855298265
0.9538807855298325
0.9246639488254479
0.9538807855298265
0.9246639488254378
0.9252505744351398
0.953880785529828
0.9122855575412873
0.9122855575412896
0.9122855575412893
0.9122855575412919
1.1025657728406497
0.9122855575412896
1.1025657728406597
0.9538807855298389
2.421755012278149
2.4217550122781524
0.9246639488254423
1.1025657728406473
2.225633454184031
1.1025657728406473
0.953880785529827
0.9538807855298307
1.1025657728406515
0.9538807855298284
1.671375557709931
0.9122855575412896
0.9122855575412896
0.9538807855298265
1.102565772840657
0.9122855575412839
0.9538807855298389
3.422868942013171
0.9538807855298455
0.9122855575412994
0.9538807855298284
0.9538807855298221
0.9122855575412873
1.1025657728406575
2.013223201150952
0.924663948825441
2.4217550122781497
0.9246639488254423
2.421755012278157
1.1025657728406502
2.3135001821447343
0.9122855575412872
1.868022349430819
0.9122855575412988
0.9122855575412974
0.9122855575412839
1.1025657728406497
1.1025657728406515
1.1025657728406433
2.013223201150943
1.1025657728406524
2.4217550122781497
1.822653081155994
0.9122855575412915
0.9538807855298221
1.1025657728406597
0.9122855575412919
2.3619538166681076
0.953880785529828
1.102565772840661
1.1025657728406444
1.1025657728406497
1.1025657728406433
1.1025657728406444
0.9538807855298408
0.9246639488254423
1.1025657728406444
1.4273041621679468
0.9122855575412915
0.9246639488254531
3.906332393313624
0.9538807855298265
0.9538807855298213
0.9122855575412873
0.9538807855298426
1.1025657728406444
0.9122855575412988
1.1025657728406473
0.9122855575412893
0.9122855575412988
0.9246639488254423
0.924663948825454
1.1025657728406497
0.9538807855298284
0.6891395766831425
1.1025657728406515
0.9122855575412896
0.9246639488254371
0.9246639488254427
0.9246639488254507
0.9246639488254459
0.9246639488254423
0.9439146305367888
0.924663948825454
1.1025657728406497
2.2269773793781313
1.1025657728406606
1.8668588825824028
1.1025657728406473
1.1025657728406488
0.9538807855298307
1.1025657728406502
0.9538807855298284
1.1025657728406473
1.1025657728406473
0.9122855575412816
0.9122855575412896
2.421755012278157
0.9538807855298284
2.421755012278147
1.1025657728406497
0.9122855575412919
0.9538807855298284
2.2876005175005325
0.9122855575412839
1.1025657728406497
1.1025657728406497
0.9122855575412893
1.514327450688326
0.9122855575412849
2.4217550122781497
0.9122855575412919
0.9538807855298265
2.4217550122781497
1.1025657728406597
1.9538816228889027
1.1025657728406502
1.6904531046687112
0.9122855575412896
1.1025657728406497
1.1025657728406497
1.1025657728406464
0.9122855575412896
0.9122855575412896
1.1025657728406575
2.421755012278147
1.1025657728406473
0.9538807855298265
1.1025657728406575
2.421755012278144
3.188368054353436
0.953880785529828
1.1025657728406546
0.9122855575412873
0.9122855575412896
0.953880785529836
0.9122855575412988
0.9122855575412816
1.102565772840643
1.102565772840651
1.1025657728406488
1.1025657728406473
0.9538807855298342
0.9122855575412896
0.9538807855298261
0.9532195497104499
1.1025657728406597
0.9122855575412873
0.9538807855298265
1.1025657728406502
0.9538807855298265
1.1025657728406524
1.1025657728406513
0.9538807855298284
1.1025657728406515
1.1025657728406482
0.953880785529827
3.0548476441378325
0.9246639488254459
1.1025657728406502
1.1025657728406546
0.9538807855298284
0.9538807855298265
0.9122855575412893
1.1025657728406488
0.9122855575412896
0.9538807855298265
1.1025657728406488
1.102565772840643
0.9538807855298284
2.3227754673273306
1.1025657728406562
0.9538807855298389
1.1025657728406444
0.6891395766831183
2.421755012278147
1.1025657728406473
1.1025657728406497
2.6516524540295423
0.9282197918740326
2.4217550122781497
2.316082841446399
0.9122855575412873
1.1025657728406497
0.9246639488254409
0.9122855575412845
0.953880785529828
1.1025657728406482
0.953880785529836
2.316082841446398
1.1025657728406473
0.9122855575412896
1.1025657728406584
1.1025657728406575
0.9538807855298213
0.9122855575412948
0.9122855575412896
0.9538807855298284
2.3070085929772173
2.421755012278149
0.9122855575412839
0.9538807855298284
0.9122855575412896
0.9246639488254512
0.9122855575412896
0.9246639488254531
0.9246639488254378
1.1025657728406577
2.4217550122781466
1.1025657728406597
4.404560017309345
1.1025657728406502
2.3812081559569482
1.1025657728406502
1.1025657728406533
1.5928773738579336
0.9122855575412896
0.9538807855298284
0.953880785529837
0.9122855575412839
0.9122855575412893
0.9538807855298284
1.1025657728406473
0.9122855575412883
0.9122855575412896
1.1025657728406502
2.4217550122781524
0.9538807855298284
0.9122855575412883
1.1025657728406542
5.867294312788734
0.9122855575412893
0.953880785529828
2.421755012278149
0.953880785529828
1.1025657728406473
0.9538807855298314
0.9538807855298284
0.9122855575412873
0.9538807855298221
1.1025657728406473
0.9538807855298213
0.953880785529837
1.1025657728406497
1.1025657728406513
5.971014904508412
1.1025657728406488
1.1025657728406497
1.1025657728406444
0.9538807855298221
1.1025657728406706
2.5299246716879895
1.1025657728406473
0.9122855575412935
2.4217550122781497
1.102565772840643
3.9063323933136136
0.9538807855298221
0.9122855575412896
0.9122855575412896
1.1025657728406473
0.9122855575412896
0.9122855575412948
2.421755012278147
1.1025657728406444
2.4217550122781497
2.378909068802934
0.9538807855298265
2.6938604559886397
1.1025657728406473
0.9122855575412873
0.9122855575412893
1.1025657728406497
0.9122855575412896
1.1025657728406497
2.4217550122781497
0.9538807855298325
0.9538807855298284
1.1025657728406466
0.9122855575412873
2.3135001821447396
0.9122855575412873
0.9538807855298265
0.9122855575412896
2.421755012278147
1.1025657728406497
1.1025657728406488
0.9122855575412883
0.953880785529841
0.9122855575412994
0.9538807855298284
0.9122855575412873
0.9122855575412839
0.9122855575412883
0.9122855575412988
0.9122855575412873
2.4217550122781524
1.1025657728406497
2.4217550122781497
0.9122855575412988
1.1025657728406497
0.6891395766831226
0.9538807855298208
1.8680223494308026
0.9538807855298246
0.9122855575412883
2.2899693773371856
0.9122855575412873
1.1025657728406497
1.1025657728406444
0.9538807855298265
0.9122855575412893
0.9122855575412896
2.421755012278149
1.1025657728406497
0.9122855575412873
0.9122855575412896
0.9122855575412839
1.1025657728406606
1.1025657728406575
0.9538807855298265
0.9122855575412873
1.1025657728406473
2.4217550122781555
1.1025657728406515
1.1025657728406497
1.1025657728406595
0.9122855575412896
2.4217550122781497
0.9538807855298284
0.9122855575412896
0.9538807855298325
1.1025657728406502
0.9122855575412896
0.9122855575412896
0.9122855575412893
0.9122855575412896
1.1025657728406473
0.9122855575412896
0.9538807855298265
0.953880785529836
0.9122855575412839
0.9122855575412919
0.953880785529827
1.102565772840651
1.1025657728406497
2.4217550122781457
0.9538807855298368
0.9122855575412873
0.9538807855298307
1.1025657728406515
1.1025657728406497
0.9538807855298265
0.924663948825441
1.1025657728406497
1.1025657728406606
0.9122855575412872
0.912285557541282
0.9122855575412893
1.1025657728406606
0.924663948825454
0.9122855575412896
1.8680223494308086
0.9538807855298246
1.1025657728406562
0.9122855575412971
0.9122855575412896
1.1025657728406444
1.1025657728406497
0.9122855575412816
0.9538807855298284
0.9538807855298265
2.4217550122781466
0.924663948825441
0.9122855575412873
0.9538807855298284
0.9122855575412893
1.1025657728406473
0.9122855575412988
1.1025657728406473
0.9122855575412873
0.9122855575412873
0.9122855575412921
1.1025657728406473
2.4217550122781497
2.037245396039247
0.9122855575412988
1.1025657728406473
1.1025657728406473
1.1025657728406497
0.9538807855298246
0.9122855575412935
1.3034001228400336
1.1025657728406562
0.9122855575412896
1.319396752848154
0.9122855575412915
1.1025657728406497
2.4217550122781466
1.1025657728406482
1.1025657728406442
0.9246639488254423
0.9532195497104499
1.2611495232537928
1.1025657728406497
1.1025657728406488
1.1025657728406497
1.1025657728406497
0.953880785529841
1.102565772840643
5.401412052326622
1.1025657728406575
0.9122855575412935
0.9538807855298284
1.1025657728406502
1.1025657728406497
1.1025657728406444
0.9122855575412968
1.3565690482909813
0.9538807855298325
0.9538807855298284
1.1025657728406497
1.1025657728406473
1.102565772840661
1.1025657728406433
1.1025657728406533
0.9122855575412872
0.9122855575412896
0.9538807855298284
0.9122855575412893
1.1025657728406457
0.9122855575412873
1.1025657728406473
1.1025657728406497
0.9122855575412896
0.9122855575412931
1.1025657728406488
1.1025657728406575
0.9122855575412988
0.9122855575412893
0.9122855575412893
0.9122855575412893
0.9538807855298284
0.9538807855298389
2.421755012278149
0.9122855575412896
0.9122855575412883
1.1025657728406597
1.1025657728406533
1.1025657728406524
1.1025657728406497
1.1025657728406606
1.1025657728406502
0.9122855575412896
1.1025657728406433
2.4217550122781497
0.953880785529841
1.1025657728406502
1.1025657728406575
1.1025657728406597
1.1025657728406473
2.421755012278149
1.1025657728406524
1.1025657728406597
0.9122855575412896
1.1025657728406542
0.9122855575412893
0.9122855575412919
2.056799062390036
0.9122855575412935
0.9538807855298265
0.9122855575412883
0.9122855575412883
1.1025657728406497
0.9246639488254452
1.1025657728406444
0.9122855575412883
0.953880785529828
2.4217550122781497
0.9122855575412896
1.1025657728406557
1.1025657728406575
0.953880785529827
0.9538807855298265
1.1025657728406606
0.9122855575412988
0.9538807855298284
0.9122855575412873
0.9122855575412919
0.953880785529827
0.9122855575412896
1.1025657728406444
1.1025657728406575
0.9538807855298325
0.9122855575412883
0.9122855575412896
0.9122855575412873
1.1025657728406597
1.1025657728406444
0.9122855575412896
2.421755012278147
1.1025657728406444
1.1025657728406606
1.1025657728406473
0.9122855575412896
0.9532195497104499
0.9122855575412921
0.9122855575412896
0.9122855575412896
0.9538807855298261
0.9122855575412919
2.421755012278147
2.4217550122781497
1.1025657728406488
0.9122855575412873
0.953880785529828
0.9538807855298261
1.1025657728406575
0.9122855575412873
1.1025657728406497
0.953880785529828
5.109908114553161
2.170297836934144
1.1025657728406502
0.9122855575412968
1.1025657728406597
3.5795856652241786
0.953880785529828
0.9122855575412994
5.109908114553161
1.1025657728406606
1.5254286784253175
1.1025657728406497
0.9532195497104499
2.421755012278157
1.868022349430818
1.1025657728406502
1.1025657728406473
1.1025657728406597
0.9122855575412896
0.9538807855298244
0.9246639488254423
0.9122855575412896
1.1025657728406497
0.953880785529828
1.1025657728406497
2.2135206807869148
0.9122855575412896
1.1025657728406606
0.9122855575412873
0.9122855575412896
0.9122855575412935
1.1025657728406497
1.1025657728406542
2.4217550122781497
1.1025657728406524
1.1025657728406488
5.754917952552205
0.9122855575412988
1.1025657728406497
1.1025657728406497
0.9538807855298284
0.9122855575412948
1.1025657728406468
0.9122855575412893
2.4217550122781497
0.9538807855298284
0.9122855575412935
0.9122855575412873
0.9538807855298284
0.953880785529841
2.3507060699569715
1.1025657728406473
0.9122855575412896
1.1025657728406497
0.9122855575412896
1.1025657728406606
1.4990236305599514
1.102565772840643
0.9122855575412896
0.9122855575412873
1.1025657728406488
2.6516524540295423
0.9122855575412873
0.9122855575412883
1.1025657728406597
1.1025657728406473
0.9122855575412839
0.9122855575412893
0.953880785529836
0.9538807855298284
0.9122855575412839
0.9122855575412919
0.9122855575412896
1.1025657728406473
1.1025657728406442
1.1025657728406497
1.1025657728406497
2.0407501319474237
0.9122855575412919
1.1025657728406473
1.1025657728406488
2.4217550122781466
1.1025657728406444
1.1025657728406706
0.9122855575412873
0.9122855575412915
1.1025657728406606
0.9538807855298217
0.9122855575412873
0.9122855575412889
0.953880785529828
1.822653081155999
0.9122855575412935
0.9632071683841521
1.1025657728406524
1.1025657728406444
0.9122855575412893
0.9122855575412872
0.953880785529827
0.9122855575412896
1.1025657728406488
1.1025657728406444
2.4217550122781457
2.421755012278144
1.1025657728406473
0.953880785529827
0.9538807855298284
2.316082841446391
0.9122855575412896
0.9122855575412896
0.912285557541294
1.1025657728406575
1.1025657728406597
1.1025657728406502
1.8634463168985804
0.9122855575412896
2.4217550122781555
0.9122855575412893
0.9122855575412896
2.1065458526356218
0.9122855575412994
2.4217550122781497
0.9122855575412988
1.1025657728406497
0.9538807855298284
2.4217550122781497
0.953880785529828
1.1025657728406444
0.9538807855298221
2.4217550122781497
1.1025657728406502
0.9122855575412873
2.3160828414463928
0.9538807855298284
1.1025657728406488
0.9122855575412896
0.9122855575412883
1.1025657728406606
0.9538807855298221
1.1025657728406597
0.9538807855298213
1.1025657728406606
2.4217550122781497
1.1025657728406597
0.9122855575412872
1.1025657728406497
0.9122855575412893
1.1025657728406497
1.5928773738579336
1.1025657728406473
0.9538807855298284
0.9538807855298284
0.9538807855298284
0.9122855575412893
1.1025657728406482
0.953880785529827
1.1025657728406497
0.9122855575412839
0.9538807855298213
0.9122855575413071
1.1025657728406502
2.4217550122781497
0.9122855575412883
1.1025657728406597
2.313500182144735
0.9122855575412896
0.953880785529827
0.9122855575412896
2.421755012278147
1.1025657728406488
1.8634463168985804
1.1025657728406502
2.3282665130312292
0.9538807855298389
0.9122855575412994
2.421755012278147
0.9122855575412893
0.9122855575412896
2.421755012278147
1.1025657728406502
2.421755012278147
1.1025657728406488
2.4217550122781497
0.9122855575412893
2.4217550122781524
0.953880785529827
0.9122855575412935
1.1025657728406542
0.9122855575412849
1.1025657728406497
1.1025657728406606
0.9246639488254409
0.9538807855298221
1.1025657728406473
1.1025657728406488
0.9122855575412896
0.953880785529828
2.3568135142964506
1.1025657728406524
1.1025657728406473
0.9538807855298265
1.0805956261973912
0.9538807855298307
0.9538807855298265
1.1025657728406488
2.4217550122781497
1.1025657728406502
0.9246639488254423
0.6891395766831183
1.1025657728406497
2.4217550122781497
0.9246639488254409
0.9122855575412885
0.924663948825441
0.9246639488254423
0.9538807855298228
1.1025657728406502
1.1025657728406473
0.9246639488254521
0.9122855575412896
0.9538807855298389
0.9538807855298265
0.9246639488254423
0.9122855575412893
0.9246639488254409
1.1025657728406473
1.102565772840652
0.9122855575412988
0.9246639488254423
1.1025657728406533
0.9122855575412816
0.9538807855298265
1.1025657728406444
0.9122855575412893
0.9538807855298389
2.4217550122781497
0.9352244073324659
0.9538807855298307
4.085480669440118
1.1025657728406488
1.1025657728406497
0.9122855575412893
0.9122855575412896
1.1025657728406502
1.1025657728406488
0.9538807855298284
0.9538807855298284
0.9122855575412896
3.3556703204234015
0.9538807855298284
1.1025657728406433
0.9122855575412896
1.1025657728406444
0.9538807855298389
0.9122855575412994
0.9122855575412994
2.133846777839297
1.1025657728406497
1.1025657728406597
1.1025657728406497
0.9538807855298265
1.1025657728406497
0.9122855575412996
0.9122855575412849
1.1025657728406433
2.4217550122781497
1.1025657728406497
0.9122855575412873
0.9538807855298265
1.1025657728406562
0.9538807855298244
2.037245396039247
1.1025657728406497
0.9538807855298389
1.1025657728406575
1.1025657728406584
0.9538807855298342
5.170026117045606
2.4217550122781497
1.1025657728406502
1.102565772840643
3.0153264665001047
2.4217550122781497
1.1025657728406497
1.1025657728406513
1.1025657728406497
0.9122855575412988
2.316082841446397
0.9122855575412896
2.1983293561792436
0.9122855575412896
1.1025657728406588
1.9538816228889027
0.9122855575412849
0.9122855575412893
0.9122855575412896
0.9122855575412845
0.9122855575412883
1.1025657728406597
1.1025657728406473
0.9419192483054328
2.4217550122781493
0.9122855575412896
1.1025657728406577
0.9122855575412896
0.953880785529828
1.1025657728406488
0.9122855575412849
1.1025657728406597
0.953880785529836
1.1025657728406444
2.4217550122781493
1.102565772840645
0.9122855575412816
1.5347086528482232
0.9122855575412896
1.1025657728406562
1.1025657728406502
0.9122855575412873
0.9538807855298284
0.9538807855298284
2.4217550122781497
0.9538807855298265
0.9538807855298265
0.9122855575412896
0.953880785529828
1.1025657728406497
2.3718320313238563
2.385137798188694
0.9538807855298284
0.9538807855298307
1.102565772840661
1.1025657728406515
1.1025657728406473
0.9122855575412896
1.1030215238130645
1.1025657728406473
0.9122855575412896
0.9122855575412994
0.9538807855298284
0.953880785529841
2.4217550122781457
0.9122855575412893
2.1118917504849186
0.9122855575412896
1.1025657728406473
1.1025657728406575
1.1025657728406515
1.1025657728406502
1.1025657728406497
1.1025657728406584
0.6891395766831226
1.1025657728406502
0.9122855575412994
1.1025657728406473
0.953880785529841
0.9122855575412873
1.1025657728406502
0.9122855575412883
1.102565772840643
0.9122855575412873
0.9122855575412893
0.9122855575412839
0.9122855575412873
1.1025657728406497
1.1025657728406502
1.1025657728406562
0.9122855575412893
0.9122855575412893
0.9538807855298284
1.7680978795484774
1.1025657728406515
0.9538807855298219
0.953880785529828
0.9122855575412896
0.953880785529828
1.1025657728406497
1.1025657728406473
0.9538807855298246
0.9122855575412896
0.9122855575412893
0.953880785529836
0.9122855575412893
2.421755012278144
0.9538807855298284
1.1025657728406595
0.9538807855298284
0.9122855575412839
1.1025657728406473
1.1025657728406606
0.912285557541282
2.4217550122781457
2.421755012278149
2.4217550122781497
0.9122855575412988
1.1025657728406533
1.1025657728406502
1.1025657728406473
1.1025657728406444
1.1025657728406473
0.9122855575412896
1.8680223494308106
0.9538807855298389
0.9538807855298265
0.9122855575412873
1.102565772840643
0.9122855575412896
0.9122855575412839
0.9122855575412893
0.9538807855298307
1.1025657728406502
1.8680223494308188
1.1025657728406488
2.4217550122781497
1.1025657728406497
2.3433300550677414
1.1025657728406524
-0.5826723577370828
0.5237533019782664
-0.5664196631213363
1.3767711282847466
1.2793846910528992
-1.2523201599023421
-1.1589090631084669
1.4128903877199905
2.800598053780612
1.2964771532005146
0.4808720400990021
-0.2060681006639259
0.45040409539699644
0.6018354175750245
-0.1483795943927244
2.3529623698498594
0.5288675124722129
-0.3764690812855288
2.8861755259100668
0.31345243705090553
0.2899333140593914
3.2172799899314986
-0.3302666900583566
1.3252420288959454
0.5177580457171315
0.0844668278417498
1.384433813221683
-1.2356410567384137
0.6881664119206854
-2.9965092890221463
0.171095379449003
2.300588620325614
0.7507537488342265
-1.537920439201796
0.31270749787551655
0.8696039281617087
0.48081120502844577
1.319320264589491
-0.12119530087299901
1.2466313456295222
0.46244093489902816
-0.1401011098001565
-0.9665106288884656
1.1676807107752043
0.02647660583200223
3.0422962095612913
1.393373272239272
3.1846167703510706
1.1833103452307268
3.0345884280428086
-0.98159100042511
1.7600672007693268
0.5967370335739455
-0.11527152578247846
0.5038197168357278
-0.3073421564666844
0.5496636976471759
-0.540731617959128
0.8951271160495619
-2.7527214216989404
0.25925706249641356
2.1475882465561362
2.4961098304736087
-0.07417573618107531
2.2804343608950775
0.4747733319226347
0.5734307336545594
0.09897493854876072
0.41513194259510183
0.6843463004295134
-0.1530692438527963
1.2612774182846176
2.5942533799949965
1.4542563178687589
0.4812907558851107
0.19464472752997589
0.7607504023881659
-4.681012453542991
1.0552338204619218
0.2071298358483561
-1.345225120768098
1.408895886854314
0.16195580495338646
2.0724651512190895
0.4503022674874525
1.5119548783627075
0.5392176068752245
-0.5366781465612779
1.5038426101779419
-0.5534409916288588
-2.0272112513899887
1.1245377721302376
3.404762154472083
0.4528192037430759
0.43839570357540736
2.2755603109630504
-0.9385204733118273
1.41013542620242
2.3074458113523844
-0.42261068475161623
-0.4037904411886246
2.0481329565955284
0.539057767413878
0.32276430946658896
0.037630809585490144
3.5039739861902848
0.7944764824872879
-0.6200107873970151
-0.14279598341516808
2.592833061031758
3.155192006055955
0.11102812055934602
0.7851766303909791
-0.3443344025015539
-1.7424465421361925
1.0173589667209466
-1.8259989410359856
1.3226920433900222
0.5162187714458444
-0.37458622456977925
0.06743517753648987
0.8139355444993064
-0.16867422878204766
0.5636721621652345
-0.33026669005835674
1.3252420288959454
0.7256643017288293
0.36339430856401056
-0.30919654871871305
2.025284240615277
0.4866262951342011
1.276345190525814
0.4433525284321157
-0.02668082638151803
0.6307299034351393
-0.19866802739855918
0.6307299034351393
-0.19866802739855918
0.41513194259510183
0.6843463004295134
0.20236525532410887
1.828876778363837
1.4927544231762018
0.28749154193448745
0.6370039228919595
1.3353328189729674
0.5853308335393175
2.1689427627103304
-0.0015583832933432629
0.6115060200690254
0.4433525284321157
-0.02668082638151803
3.210639439020734
0.5025457341147008
0.5724231771547577
0.027900505310991086
0.4849821576510698
-0.2015542173573608
-2.0201585996701428
1.1316197726478545
2.4510396496893634
1.8668276217167281
0.005719372526807477
0.5439097490331318
-1.5045464857781234
0.9762657450434415
1.4587218775249058
-1.740757364252138
2.3208744975182074
1.6276838131544387
-0.7731154274037118
0.6071160583085127
0.3735227419621181
2.2136325836252038
1.8834279935976963
1.6591182927152581
0.5720807184204402
2.314917538814566
-0.2123090637620172
1.68750584990378
-1.4654243872900978
3.659146865918229
0.11005652970087448
3.442868313681146
1.5129339883326072
-2.4841621826613887
2.4739222294900376
0.35620988232314343
-0.18518543586369562
0.4758556724198594
-0.14279598341516808
2.592833061031758
0.5531077991429061
0.38867766229396006
0.8032041044944969
-2.5741528329853813
2.3074458113523844
-0.42261068475161623
-1.345225120768098
1.408895886854314
1.3230713193821053
-0.08464845316688341
0.47897251670848684
0.5250433232286889
0.25925706249641356
2.1475882465561362
0.5222927997008935
0.3860420494271408
0.4239334022767811
-0.031208009663412754
2.7245304615233628
1.4429327954550852
0.31270749787551655
0.8696039281617087
-0.33026669005835624
1.325242028895946
-2.8543043171104436
1.6735955854533215
0.3761244722161536
0.9127806748241648
-0.14763099018759007
3.15587068599348
0.41513194259510183
0.6843463004295134
-0.46977098837469444
2.5489198514742175
3.2451695117894115
0.4588866477752484
2.7129695327166514
1.5527860512156995
1.7190054438522633
-0.11943017397711397
-2.6014485386370203
2.492200401328037
2.3801085400093926
1.5999064786559944
3.0713857996931213
1.2180551376322242
0.3949638400244274
0.03304928018747211
0.48690078675220205
-0.2303082381262534
-0.9827335990294107
2.452325388671891
1.9177589635380552
2.2696255836532266
0.5753338683868643
-1.0426854092127744
0.5257291322422042
0.3682839196181084
1.516351895522865
0.17709999257439413
0.13820963096939187
2.930885683384471
2.9993844447929376
0.10985384113153951
2.394632990455149
-0.12634619001056246
-0.09372356438990082
0.9446812772640132
-0.14763099018758385
3.1558706859934857
0.42018659082926124
1.5437610399914607
0.21564491329830848
0.5867528793076708
2.113211210469478
1.7077025985574903
0.12026968940331728
0.5731835559453546
-1.187511769069296
2.522065082813772
0.4174030395485143
-0.005383915477288226
0.3508607311074985
0.3454765702211835
0.37923306310998006
0.06928832002380281
0.063886302966357
1.5166104510237903
1.7219591037633555
1.1236745884961994
1.7907369845679137
-0.09364377030364368
0.5519670480111971
-0.6608798743848168
0.18550624406485816
1.0280827451836798
0.35420838859749243
0.10626446499027725
-0.014013415068821256
2.1180711571951805
-0.14279598341516808
2.592833061031758
-1.647699590222533
1.3941034898516595
0.41513194259510183
0.6843463004295134
0.18463139767344205
1.029209900411415
1.4803222323415532
-1.5368354526415353
0.12418724203836962
1.0865487804327267
0.656679709313125
-0.460400293972354
-0.014891280333234003
0.43279752002068683
1.3486544364296114
1.9376708097379183
2.786650416796526
0.6497013145207003
1.879907763580245
2.2151933634196435
0.18672971793340132
0.29266916458984726
0.31270749787551655
0.8696039281617087
0.5156487009649326
1.017685523904765
0.3127074978755112
0.8696039281617038
0.3711435011002695
1.854009577051828
2.1538546057589705
-0.0653762665790395
2.063595561002088
1.8197028113752913
0.43405359309769165
1.4999929642020169
0.6019932990639927
0.659773646968961
-0.6655759438161912
2.0733310047751603
-1.345225120768098
1.408895886854314
0.5222927997008935
0.3860420494271408
2.3208744975182074
1.6276838131544387
0.5463557219128689
2.098067204670439
-1.4839269861446647
0.8003504869810376
0.5508328544611745
-0.05771831651001935
-0.5311949224319602
1.047344245777717
0.15089328753858017
0.5601944193046475
-1.3969739078405345
2.6604109765887114
0.5768297450709223
0.1528969223453888
2.2113374930162757
0.09140721378137961
0.4032882783573162
0.026858817595569073
1.0454838885520954
-0.9173768880780082
3.000293677784205
1.1680870103409953
1.32307131938211
-0.08464845316687819
0.8291951367123989
0.33776609603756547
1.086066848338556
-0.4755420473141878
0.5688167718241606
1.3600128240291158
0.1776719853232711
0.9980007901918269
1.5058094319749518
-0.7266782588569403
-0.11156083570690967
2.825405834916667
2.4953124668324045
1.3750171940784466
2.0359737082891116
1.6766973684236857
0.681847230032358
1.5790537785156955
0.519646805246393
-0.3952328755542792
0.49227512547310814
0.7120440685950786
0.3949638400244274
0.03304928018747211
1.1402769686017251
0.1380223041609011
-1.3452251207681019
1.4088958868543098
1.2881150254666536
0.6351335064325967
3.2097789025307866
0.5316507922543844
3.0713857996931213
1.2180551376322242
2.786650416796534
0.6497013145207091
-1.345225120768098
1.408895886854314
-0.21523805860571293
0.5590002906815524
1.4743768658322454
1.9236312967653941
-1.8872784817280068
1.3776681496603955
0.4054987439121428
0.5977435510019293
1.293814420372005
1.9880661316071533
0.2220552188650604
1.109032485349318
0.27305928646216815
1.9118877362346771
0.31270749787551655
0.8696039281617087
-0.05490599104173288
3.56558786539032
0.18672971793340212
0.29266916458984793
1.4183688039301898
-2.0687925102986346
1.443152585196916
-0.3700322954602372
0.5550397031578712
-0.6966247191345424
0.3482413590002703
1.9279348374980967
3.0190330370760625
-0.22570789774204036
2.5814849198616354
1.482829127389702
0.15089328753858017
0.5601944193046475
-1.507916372836371
1.5663808828097063
0.45040409539699644
0.6018354175750245
-0.047934261910953846
2.4133385705126496
-0.14279598341516408
2.5928330610317625
3.3111292921957447
0.7646514495749022
0.8049333223507245
-0.6013774661316407
-0.26753509849414536
2.6504155027467355
-0.3175259275957038
1.7258996626412153
0.20233373420117107
1.01054459276827
0.5124323247811771
1.050836791891884
-0.32959585382441214
0.9565545541224343
1.9910391958893703
0.19817582583925322
-0.13605887202913325
2.3683877982889143
0.4135286730030177
0.33178246463289124
0.6186137092047943
1.8412122928384764
-1.7648920878743763
2.0888985780494704
0.6515846428036431
-0.4009568393442648
1.1780982343999435
0.2894703936465508
-0.40775901172847756
1.9179416175512254
0.5162187714458515
-0.37458622456977353
0.19443191945134974
0.29637628710007036
0.4790423575930285
0.45761694616393045
0.21608728573679525
3.325755518402857
0.4239334022767811
-0.031208009663412754
3.2464727974561587
0.3560575357561707
-1.6191365541376137
2.2192589678190044
1.7111611874025694
1.6707559312807867
0.25925706249641356
2.1475882465561362
1.3795162960792788
1.39062234186798
0.5760784585518173
-3.428168343816429E-4
-0.8115111954743648
1.4036133114153602
-0.30447309755370805
0.5033635385821942
0.31270749787551655
0.8696039281617087
-1.360745890385937
1.945599701905652
-0.296606364787652
0.9827881774476033
0.9751807527766624
0.2606081607876191
0.30070065435892135
2.055500445794122
2.95861318953151
0.05433987189095796
-0.4077590117284808
1.917941617551222
2.908621039038545
0.20097013102718775
0.4239334022767811
-0.031208009663412754
-1.266486945308967
0.8460091140183623
-0.12066980828434304
1.6468342585716305
-0.11855313847102567
1.1309612308858628
-0.7487942977546482
2.925295341491629
3.0209592111225407
0.12254496495783429
0.4135286730030177
0.33178246463289124
0.31270749787551655
0.8696039281617087
-1.131049453642975
2.7031918794720613
0.4503022674874525
1.5119548783627075
0.5331700658413964
-0.4879258438904218
-1.0925296065724655
2.0509851254933187
-0.6715849541881591
1.2479682830499743
0.45338911804529813
0.2591188166713108
-0.054905991041726776
3.565587865390326
0.43901451312727946
-0.07006226055908105
0.4790423575930285
0.45761694616393045
-0.15572932338200185
0.4528523938157004
2.3373445711101466
1.736776877544617
-0.33026669005835624
1.325242028895946
-0.27037786319414914
0.5731941628633574
0.5177580457171315
0.08446682784174986
1.7507692989344945
-0.09562314011136441
0.6996495664149446
0.39054208253406564
0.374204252582768
0.0724609121427986
3.1891241017753105
0.5705287081698115
0.35420838859749404
0.1062644649902802
0.4478468766866941
-0.08803910815659188
1.447997339516567
1.853418943820908
0.5038197168357255
-0.3073421564666859
0.5886432124217529
-1.053579006394722
1.5831044965816525
1.8169081901694721
0.15165665091196195
3.7486299508910044
1.952420419490314
3.2181088944317784
0.6802191570973353
-1.3228544707820493
-0.16867422878204766
0.5636721621652345
0.4239334022767811
-0.031208009663412754
2.908989196843978
1.1071275869894772
1.1402769686017251
0.1380223041609011
2.0233348308256716
1.7356092545700676
-0.33026669005835624
1.325242028895946
0.20215272891799538
0.30005156144600303
1.582280147885598
4.242846727638344
2.8081186153720794
2.193684083038434
0.3553405292287048
0.8656026025033531
0.22679613320205516
2.1520576682694568
0.465797252620227
-0.1396395062486384
0.20500836617405072
2.247490230061032
1.260814772273083
0.0072456795513524686
2.4599436074858563
1.5967862137165134
0.42189476746383037
2.33910208252501
0.8291951367123989
0.33776609603756547
-0.04890809076823077
2.5325702738514373
0.5038197168357255
-0.3073421564666859
0.6946847437336929
-1.2051545988014183
0.28087619637164163
0.2046747495672706
1.670249737632096
1.6516866316420178
1.0552338204619218
0.2071298358483561
2.1276363443090713
0.7690435825456675
-1.0917136253858297
1.9851151689273723
0.526476265563073
0.8949816958783825
0.171095379449003
2.300588620325614
0.5410452747754598
-0.4648756480610609
1.9262751674414658
-0.3415570537916888
0.3837525843226621
0.4801102085499477
0.34428476156440857
3.1174807576092576
0.4624409348990333
-0.14010110980015164
1.9381821827503456
1.707375151425294
0.526476265563073
0.8949816958783825
0.4998557614024699
0.35682001705746136
-0.3302666900583489
1.3252420288959532
-0.043906263847277416
1.2061373469988603
-0.3547347981921224
1.1502087315760219
0.25925706249641356
2.1475882465561362
-0.8105872800691588
1.2185946974248663
-0.2115748151296709
2.4898382698938124
0.25925706249641356
2.1475882465561362
0.3882779181914562
1.5405057536503
0.6946847437336929
-1.2051545988014183
-0.05490599104173288
3.56558786539032
3.0308059333922586
0.14114286585870783
1.0142921877379185
0.28758053982982457
-1.345225120768098
1.408895886854314
0.5949528414771742
0.05323698309525665
0.6959962307074501
0.33154301374261164
0.7279993149299337
-3.6199080939217763
0.18672971793340737
0.2926691645898534
-1.4428490123884843
1.7025781894611196
-1.647699590222533
1.3941034898516595
0.27308959491632256
2.7292934107101887
2.61675606637289
1.6107232646991965
0.15983787242388603
1.5650221623457812
-0.17576869786242635
0.48114446919945375
0.24361027415261033
0.5089913228577289
0.5519670480111971
-0.6608798743848168
0.47897251670848684
0.5250433232286889
0.2618192460141283
0.24592379213545446
3.366346809681979
0.5967254157469264
2.714505802249138
2.186208746821241
2.3208744975182074
1.6276838131544387
3.3990725084181674
-0.18714687957143905
0.5837176160603527
0.428760812006732
2.4200336414300136
-0.1131517434939131
0.2924284403342476
0.19132390865682813
1.0102198160041125
2.294301517007005
0.6053777757950243
2.6982736789977926
2.063595561002088
1.8197028113752913
0.6053777757950243
2.6982736789977926
0.36024366641411665
0.791976953746303
2.739560285374072
1.3212275292044429
2.862211112005564
2.186083010666579
0.7427669095320613
2.290349994803151
0.41378089735131174
1.5246443431393477
-0.41820625057627514
2.3103272488123983
0.6554399771958879
2.324521633622295
0.6129609438292598
2.651789625761752
0.6316468673823308
2.5238720751229478
0.5854694908318216
-0.733580770550921
1.0159982655686564
1.8142823737841258
-0.16820818249692282
0.45619387331171
3.093992251806574
-1.323219262026507
0.055687743951204904
2.3096152045585385
-0.2627512555455716
0.4831121306817239
2.290721625521724
1.9106829162095962
-3.2420504860023467
0.6326220541183853
0.35976398052149905
1.8914202206424895
0.6789912949232686
-0.8009942020515791
0.6210658900268097
-0.12132066381725884
2.028340694169012
0.8175548884969674
0.6854072453297049
-2.446172062527511
0.7016884501341416
-1.5140038418194472
1.414779128530458
-0.2806227164703114
0.44398985000892915
0.2206627421335655
0.5698526692539949
-0.5135373658539809
0.38959064318248277
1.9720726915405036
-1.9806132807155974
1.0650036734675554
0.45851521393217004
0.532976985365573
2.0284057823868773
0.5375554932544682
2.1789495310661557
1.71831117091287
0.4239334022767811
-0.03120800966341269
0.5534493881254406
0.2630479580244296
0.14630109294247795
0.45288090530386904
0.436851711488078
-0.02814697750702666
3.3681653958496898
0.12016051871630079
0.6476945706458603
4.017043331404264
0.31685408370013846
2.6395265068694824
-0.37399925409251555
1.4048758924876599
0.4149258396496811
1.1288126176553093
0.4624409348990332
-0.1401011098001518
-0.33026669005835624
1.325242028895946
0.706267456642421
1.0843074000826078
1.2608147722730845
0.007245679551354023
0.8291951367123994
0.33776609603756613
0.31270749787551655
0.8696039281617087
0.08902177382944121
1.1159218333613692
-1.7030391638752054
0.7122567372774156
0.13820963096939187
2.930885683384471
2.1144697685288314
1.1029932820209325
-0.2703778631941462
0.5731941628633606
0.08697175436854354
2.131303496063501
1.4587218775249031
-1.7407573642521406
0.35339092104693726
0.8193971841657107
0.656679709313125
-0.460400293972354
1.3248159460950708
2.237651522616926
2.4401111511959552
1.8685219207304817
0.7625529996573074
0.3664341387867991
1.4743768658322334
1.9236312967653817
-0.26025240374721603
0.5667331620414977
-0.3302666900583566
1.3252420288959454
0.7625529996573033
0.366434138786795
0.46724378204272443
1.4111133572615961
0.36952405110915243
0.08071041394756939
2.4953124668324045
1.3750171940784466
0.6388273807985871
-0.2706132577086474
-0.3302666900583489
1.3252420288959532
0.6001112826251198
0.022027780072328085
0.4967622187537436
0.853010859781852
2.495312466832408
1.37501719407845
2.44786401678072
1.6931456433879326
0.4790423575930276
0.45761694616392956
-1.812857874625966
1.3830958852754849
2.5673791762893536
1.4266781240837851
0.6998565025743091
-1.8634971156511644
1.7257790410522014
-1.005037533344928
0.5222927997008935
0.3860420494271408
-0.012230666555063774
0.41206419698166186
0.5038197168357254
-0.3073421564666858
-1.6476995902225369
1.3941034898516558
0.46244093489902793
-0.14010110980015672
-0.20768204949031144
0.48981826448519794
0.35142172495881197
2.556311112471772
1.3131946540021604
-0.355820402742254
3.1103888358662624
0.6990739800415563
2.337344571110143
1.7367768775446137
0.5162187714458514
-0.37458622456977364
3.071385799693126
1.218055137632229
0.502543318264261
0.45330394498013765
0.5162187714458514
-0.37458622456977364
0.5424175518043675
0.24110946154138646
0.2899333140593914
3.2172799899314986
1.7856199041187049
1.8781993911131205
0.41513194259510183
0.6843463004295134
0.1867297179334019
0.2926691645898478
-0.1667493730423082
1.1630804050564771
-1.208233530726577
2.7885566959972095
-0.26753509849414536
2.6504155027467355
0.07096776228401669
0.3787390388786153
0.021059693121570078
1.1657427883098812
2.051615492443492
2.031934799820258
4.212804031888294
1.4871847183503628
0.2540530202888267
1.019833855188224
2.042522982740469
0.9354457151119491
1.7856199041187049
1.8781993911131205
-0.05490599104173288
3.56558786539032
0.12418724203836834
1.0865487804327252
0.43519418536743604
0.5938867680347886
1.344083042836921
2.2349464905753478
0.9149585047496092
0.3493607323804029
0.13102540092001536
2.355828821600951
3.1103888358662624
0.6990739800415563
0.581500381839811
2.297715377662448
-0.01231212071990928
1.8819157088018637
0.4135286730030177
0.33178246463289124
0.18672971793340737
0.29266916458985354
2.44786401678072
1.6931456433879326
0.5038197168357254
-0.3073421564666858
3.147721994239773
-0.3984052095731738
1.2777197076937836
0.6248242896232887
2.185727796952525
1.5808122172362207
0.4535715402724372
2.7671409649118237
0.9410840068725399
0.6578495133445681
0.17303038973024398
1.8060952592341475
0.5664228264610134
-0.8595924311263486
1.263691160824985
1.5354395400988687
0.31270749787551655
0.8696039281617087
-0.8251741929969566
0.6974215055621769
0.2924284403342476
0.19132390865682813
0.8915838451796414
0.08077894596313556
0.00771256007481802
1.8539271413992968
1.563405700035824
1.6956958057313773
1.4288334810837038
0.7275139938553992
1.7184948381884035
2.1572122286905975
-0.2602707690549726
1.0121737652690137
3.2464727974561587
0.3560575357561707
0.5089652804316886
1.0851100755252425
0.6286280114343357
-3.040966343432875
0.5719161026881101
-0.9640678918968208
0.636555535120489
-3.0256910944317443
-0.2241985734321944
2.2457019906253857
0.590915089340573
2.0402966354750687
2.6046291724965873
0.935302948826576
0.05920754906653464
0.3725630067887133
1.4714695363778698
0.6252762066658692
0.5038197168357254
-0.3073421564666858
-0.14279598341516808
2.592833061031758
1.9407542473112551
1.7583891867134773
0.5119387899699709
0.6757184074630356
0.41015625435408887
0.8799421283466929
-4.838894367652285
0.7058612647015798
0.4869007867521883
-0.23030823812626416
2.039755323244778
2.0375423236619343
0.12418724203836351
1.0865487804327203
0.5212998104696036
1.5821869594493922
-0.33026669005835624
1.325242028895946
0.47931356992662794
-0.137937657264259
0.4675694785980048
2.788780350899797
-0.2854757533539449
1.3781877311029072
-0.015183811831615657
0.5465370620849028
2.2117798778800317
1.6727398733435215
-1.7443062175589081
0.677801277779362
-0.67017762888208
1.3907961981803867
0.589386364774811
0.08541083437574082
3.2464727974561587
0.3560575357561707
0.6996886231073325
2.297153093011383
0.24361027415260528
0.5089913228577252
0.4239334022767811
-0.03120800966341269
-0.0036431317573312194
1.1818619579512353
-0.0015583832933432629
0.6115060200690254
2.0731185625960604
0.03620924705200512
-0.8753979846423534
2.3128786483241788
0.5240356863223485
0.9242898149522385
-1.9036846696868883
0.8639277465038653
0.025890409596923236
0.912239283286024
3.1112723010213235
-0.029508806747395977
-1.2082335307265835
2.7885566959972032
-0.2978660036983891
2.3098699604225987
0.7427669095320613
2.290349994803151
1.2069868117670937
2.261180103045756
-0.0698874883376942
0.6347262029982426
-2.2530958980099567
1.3483229699996588
-0.6975403899108668
0.5369798092443794
1.2182249101433582
2.2597961154507047
0.9751807527766626
0.26060816078761956
0.3848650369680966
0.9175672109760757
0.47402824771575447
0.5506685620409865
1.4909531950360884
-0.6099137580728452
-0.8987209800093795
2.4254863044659345
-0.11376798273750738
0.55795378639334
1.5893812262128089
0.5939927652035994
-0.3302666900583489
1.3252420288959532
-0.7391646664228677
0.5461551072103354
0.00571937252680753
0.5439097490331323
0.41405001187858703
0.698094731033124
0.5104630397022086
-0.3420287172593556
0.268240688073186
1.254359629192371
0.5038197168357254
-0.3073421564666858
0.2164372649051255
1.857125325523735
0.21608728573679448
3.3257555184028567
0.5534493881254406
0.2630479580244296
1.2938144203720015
1.9880661316071495
0.35190074691272055
0.4145229749423882
0.5793022309916156
-0.33138856425659863
-3.1234983688781215
1.241602675369123
0.35190074691272055
0.4145229749423882
0.2732116197884501
0.2270409116584543
2.113211210469478
1.7077025985574903
0.5768297450709223
0.1528969223453888
1.1402769686017247
0.13802230416090067
0.44015432018284373
1.56634545219567
0.2210276011709783
1.8338659270425146
0.12418724203836834
1.0865487804327252
3.077169857751171
0.8799017766111284
0.4640700642466449
0.07410619110649574
0.23105027224529362
0.26147081551285867
0.40518167008866957
0.052111607500500035
0.31270749787551655
0.8696039281617087
2.4953124668324045
1.3750171940784466
1.0502233473488274
1.8974777039322073
1.1402769686017247
0.13802230416090067
0.13102540092001536
2.355828821600951
0.5443754960000233
0.6409472108316913
0.027732953750422062
0.38769412227669275
0.6827581140773312
2.297752824644907
-0.7544874341418617
0.5371099310139079
2.930517945712183
-0.11465647297401671
2.8289836517950366
0.7860273454869253
-0.22970228974086304
1.2922750365889166
2.3895080312716024
0.35562919843612295
0.3837525843226622
0.4801102085499479
2.658367841819722
1.4261806567232664
0.6171338861960534
-0.7784748696171284
2.320874497518204
1.627683813154435
1.6245284852725392
1.3502716058379052
0.5456969862410865
0.6187382036625605
3.0713857996931213
1.2180551376322242
0.10927587651774318
1.4759583168115022
0.548158706835679
0.5757375501803956
0.20233373420117107
1.01054459276827
1.4431525851969162
-0.37003229546023664
0.5560407927346035
-0.08586983783912584
1.456486246007899
-0.42123715578682486
3.11450760506188
0.22452047649268703
0.5621408542309132
-0.7915212336598125
